function [Y,Xf,Af] = NNDescriptoresFourier(X,~,~)
%MYNEURALNETWORKFUNCTION neural network simulation function.
%
% Generated by Neural Network Toolbox function genFunction, 01-Sep-2018 19:02:02.
%
% [Y] = myNeuralNetworkFunction(X,~,~) takes these arguments:
%
%   X = 1xTS cell, 1 inputs over TS timesteps
%   Each X{1,ts} = Qx68 matrix, input #1 at timestep ts.
%
% and returns:
%   Y = 1xTS cell of 1 outputs over TS timesteps.
%   Each Y{1,ts} = Qx1324 matrix, output #1 at timestep ts.
%
% where Q is number of samples (or series) and TS is the number of timesteps.

%#ok<*RPMT0>

% ===== NEURAL NETWORK CONSTANTS =====

% Input 1
x1_step1.xoffset = [0.0021;0.0036;2.6948;0.0637;0.1286;0.0085;0.0011;0.0002;-43.4505;-1.2003;-2.652;-1.1244;-0.9218;-0.6121;-0.9126;-0.6032;-0.9876;-0.6225;-0.5983;-0.3237;-0.6212;0.0002;0;0.0003;0.0001;0.0001;0.0001;0.0002;0;0.0001;0.0001;0.0003;0;0.0054;0.0021;0.0096;0.0334;0.0129;0.0103;0.0049;0.0007;0.0004;0.9644;0.1886;0.1202;0.0878;0.0617;0.0549;0.0615;0.0536;0.035;0.0357;0.0417;0.0533;0.0698;0.0002;0;0.0001;0;0;0.0001;0.0001;0;0;0.0001;0.0001;0;0.0013];
x1_step1.gain = [7.14030703320243;15.8353127474268;3.6563071297989;5.52638850511191;12.6984126984127;1.07244356265752;38.6847195357834;4.71364600518501;0.0958565985286012;0.39426735269186;0.568520992637653;1.04199228925706;1.09727327590937;2.01207243460765;1.78348492955235;1.98511166253102;1.08084738434933;2.15354797028104;2.45760629147211;2.09863588667366;2.10349179638199;16.6666666666667;50.6329113924051;10.1677681748856;12.9366106080207;8.87311446317657;26.9179004037685;7.41564701520208;40.4040404040404;246.913580246914;30.8166409861325;18.5701021355617;52.0833333333333;25.3164556962025;18.5873605947955;12.1065375302663;2.09314495028781;14.9253731343284;27.3972602739726;2.72739669984999;32.7332242225859;8.68055555555556;0.208485353903888;2.12833883154198;2.43842965130456;4.69924812030075;5.52028705492686;4.5662100456621;5.22466039707419;6.93481276005548;6.6711140760507;4.63714351959193;3.80589914367269;6.55307994757536;8.81057268722467;17.7935943060498;61.9195046439628;38.0952380952381;76.0456273764259;19.3423597678917;92.1658986175115;31.25;133.333333333333;99.009900990099;73.5294117647059;19.0839694656489;43.4782608695652;87.719298245614];
x1_step1.ymin = -1;

% Layer 1
b1 = [1.3681886675139858;-0.99401649594600194;-0.74219077846377091;-0.42549325348319017;-0.20801199595278616;-0.18572497111396039;0.43461025004559678;0.79027276011791248;1.0524926080106938;1.3397170188255039];
IW1_1 = [-0.18871329091771186 -0.16210127916175823 0.0082210174712889095 -0.14800787895185907 -0.049467514251718067 0.17601162639943019 -0.050785632260535202 0.20054025799335379 -0.05402312173967054 0.069594591817783755 0.0085479771098172872 -0.18868199802893498 0.22007220095661315 -0.22795651865689656 0.10247675908546516 -0.055142210249397083 0.14963609375759904 0.052520173165143201 -0.18347712828343221 0.075112379636916804 -0.224027134775766 -0.15993589295261484 -0.063478682765194624 -0.0027448643521732902 0.25455725697173931 -0.070451190100129485 0.031276006970960966 0.01492060057783629 -0.11552325039595833 0.087107239956098301 0.3203566012184198 -0.072207304651953352 0.11702827751293793 0.045460931278573945 -0.13388653902638659 0.36191935122893693 0.077112750578243044 0.10455114074781852 -0.075774697805030169 0.28083353592975441 0.14173636862049707 -0.18141789995326324 0.26134573398672417 -0.057409978285884761 0.26747608076129403 0.10398757066657942 -0.39534471114967024 0.022575118687207935 0.2003692361519466 -0.15681240122241769 -0.21965908548910312 0.13783665719503671 -0.25617945826897487 -0.010603239812700659 0.0040860432671665061 0.23754071998129031 -0.016743625884137078 0.0015434012341639242 0.089016854224800532 -0.10712829825952912 0.033384554184595835 0.17963588893340801 0.20069483349108441 0.087073113140107211 0.07190451026460544 0.072946584025258332 0.23948687572958066 -0.22784098621066548;0.073335533468843403 -0.028793680161269784 -0.25154655098241097 0.070436436637073177 0.22671964520288818 0.16229918643107319 -0.30090191998754662 -0.13460705657859767 -0.0047379093455162009 -0.082825951404134124 -0.075319354402569566 -0.0014547700785959546 0.049147178276313153 0.040101027305243099 0.19934699733553846 -0.12705068620166132 0.16479385718367812 -0.057723992413542306 -0.022848710358269554 -0.34003355103986127 -0.12542017594310445 -0.090663304220096455 0.20774703005215933 0.18958290300592401 0.18098001074586775 -0.16371845252998088 -0.015041697768221859 -0.2564023883719006 -0.081898214491465754 0.20149769101195958 -0.13372672921176051 -0.051624132272240768 0.12646839922561057 0.23275762253371077 0.17414914968890124 -0.20445309834433822 0.18293085515181781 0.085192299189342402 -0.16155268463846326 -0.12395694932375446 0.19829435403620266 -0.30937487390181884 -0.068513397843025903 -0.14515629565937058 -0.29843015103633069 -0.080321539791907509 0.2677038079823082 -0.31511565997257418 0.056225388131940723 0.26520133270416163 -0.034679312261630742 0.006975174879178727 0.13831015076078237 -0.12016804794866967 -0.16397825453199211 -0.044545872588182059 -0.33059740438803858 0.032605029222335387 -0.083438663742510702 -0.1502496455395762 0.14141464522870753 0.038926253931214252 -0.30397902367622454 -0.18092048418863133 -0.071237371372082164 -0.0097783043032960097 -0.016244066184768063 -0.071354322424978994;0.1464775981653893 0.062355597028418017 0.063475040396098192 0.074216247671572172 -0.09057474856367978 0.17858888029308714 -0.23191803379852985 -0.25361825473677235 0.17236757681422593 -0.073196864293825242 -0.1364766189734275 0.26196284507204315 -0.1763502200245366 0.056645713544358024 -0.17487204629242531 0.11552950019027892 0.020760146363386849 -0.34246541476255798 0.22210393123740413 -0.16345915077093068 0.029710027595922159 -0.11770925274070793 0.0016283473441827869 -0.22240683418357243 -0.0064697956202398746 -0.25022219295895237 0.10256373149071508 -0.21009600900529113 -0.25297322778064318 0.08514245976187991 -0.23642142338255334 0.038459256796255475 0.18284637944181964 -0.13641870018998939 -0.20383340690891447 0.15550782858212195 0.085914829201895096 0.24656033280856104 0.091995915051120744 -0.084021191315788904 0.21341520179663839 0.18352011225450585 0.063837759552258705 -0.19699100475945347 -0.20923830737174723 0.16448243154830292 -0.14106568221995255 -0.12232136210064187 0.011200460578812894 -0.099038822013050434 -0.08212760359540737 -0.16731817903851243 0.21161768320450514 -0.012370192962374845 -0.06611693022986008 -0.16769838870193746 -0.23433084068920076 -0.085729355138495084 -0.039319194181767242 0.26333315606857821 -0.26006431052823187 0.11320275450907223 0.26566052009121011 0.13185438743596578 -0.028826686875210686 -0.068881564233919862 -0.006237243492656537 -0.051442199108971264;0.12562247392289502 -0.24931308214786665 -0.21421796655416306 0.17528075899503551 0.090257824691362801 0.032246956995439981 0.050679113719693344 0.032790808655043691 0.060057663709775166 0.12233477075110756 -0.029676463653142915 -0.095091071543421779 -0.17524784840888902 -0.14573869853259314 0.092906997375892295 -0.040599151238432225 0.30617846325428272 0.090839991175976617 0.029013208623383947 -0.1491356834466975 -0.069823730540685566 0.020988905825282837 -0.16139272555796277 0.0795859468788786 -0.039573074866319335 0.18909110799020029 0.041219598305118996 -0.021890821730341001 0.077124850387761998 0.05908320221364783 0.1346036271343492 -0.11120118376555588 0.10143078464629551 -0.065977952980237536 -0.034328473558128209 -0.28936578928651546 -0.15591018245680013 -0.35735779471599893 -0.22023193824123938 -0.31393187361369962 0.041186896278031369 -0.028283833529903595 0.11799947774903605 -0.23776285836215771 -0.020708627180335976 -0.12300204052958533 -0.17713543419807051 0.18154984966259347 0.0072605649771661767 0.22464922641294735 -0.33473129296698384 -0.13672610436899807 0.11806078865036093 -0.1908378407831183 -0.12275697977342877 0.10442366412846366 -0.21720168960527381 0.17550282271341344 -0.10535846608263487 0.17497308579966561 0.15926088219572168 -0.14699076844967651 -0.12283028008097893 0.017288930815865435 -0.21546530528850028 0.13103218115908172 -0.083579157639657134 0.079261349093020031;0.25741801513143875 -0.1502368226969801 0.10563641171675592 -0.26744310234485358 0.099201956936539867 -0.3038391997261603 -0.13814082577541228 -0.066262984898363644 -0.08333067875953043 0.054810301124472507 0.024164056210803597 -0.25963843165213452 -0.26276009707570641 -0.13694755298715022 -0.29143642322513036 -0.16416605268778975 0.25472599508958771 -0.11582682432938687 0.24049633389206868 -0.01289419990120522 -0.15650861808849395 -0.01554630219957381 -0.1512242616495437 0.012059454173810592 -0.089721307959420821 -0.033386476887496491 -0.13178569495336595 0.0074850509645470031 -0.12508844523331877 0.10226245925397948 0.028386864465271756 0.12902873523930553 0.017110494624954221 -0.2061387398072918 0.2407119189274223 0.062738736345644808 -0.20792921390092198 -0.099323844717076254 0.1426981538756035 -0.096643923571713794 -0.10258637569826483 -0.052815509792071093 0.015224780729579449 -0.18554500840987703 0.079575283822141379 -0.011414761127192629 0.15193073985470698 0.21172719792288297 -0.1292730197864024 -0.29739202752716648 -0.0030185987005219928 -0.16632029854018066 -0.046911101113656602 -0.28953588000907793 -0.0096817781304982739 0.14795009181704658 -0.013013466974190877 -0.10287243130492735 -0.15879701845684327 -0.099535255153750363 0.2431140660524379 0.23591706627916192 -0.036421807149216008 0.21253228130349699 -0.030313242017466446 0.11557716754130382 0.019032783376093685 -0.012966359911363856;0.045912314262335885 0.0070956768273450731 -0.14457951145441061 0.033492331537345862 0.10668044125664297 -0.3203131016520836 0.24174818541477827 0.23987285333026637 -0.19645863638017497 0.0040828388977248112 -0.011145600501959084 -0.011826023583346272 0.27917471888153417 0.1493013101183821 0.026207203456353665 0.065544310956201904 0.073824291866555744 -0.03760835295237841 0.26850140164867403 -0.29743019903137735 0.062948727984850905 0.073282619772313429 0.12840832467938493 -0.17258297726399247 0.13333493810410699 0.10710181874532793 -0.07697115978196209 -0.09298348447106479 0.13851520575204035 0.050486163983737162 -0.046243989024897597 0.0097264698642240341 -0.25729439314816432 0.077280387755895408 0.1783223135975977 0.11714738597164315 -0.16600084743655633 0.040445916840690231 -0.074547020378048653 0.072116579390124141 -0.23758603336811893 -0.078548506180026456 -0.016782256178382506 0.25546351282172458 0.087276881479472365 0.23317509103014272 -0.21886322294484278 0.21294893919485974 0.15139189455718577 0.12462396842383586 0.21710723330053913 -0.17488037052459188 0.21197469559776136 0.17200286856557254 0.07626306932734489 -0.079320807323677772 0.16169678908007654 0.068312966611379963 0.14553719421345504 -0.091344080308544517 -0.24414140905402049 -0.16428126948816002 -0.16586743589778313 -0.20250194098254254 -0.17792648131041375 0.045249880804780263 -0.18538370004837226 0.064540308088695694;0.090615004351799561 -0.28629682181618049 0.061385756129103949 0.13912618914953062 0.11102951614650332 -0.19164487245584852 0.34204504975379596 0.2748514387803298 0.1787151729043914 0.1556699044365227 0.26163114176257657 0.060235975244136736 -0.042156543027167023 0.11561491195282991 -0.087339130348639354 -0.10039047780557703 0.17873911382931087 0.13844213292864302 0.12670390109813595 0.23975794239019455 -0.15725164300295361 -0.018213640573875041 0.19812180012073877 -0.076821834757186694 -0.03257783331758294 -0.21800920799189924 0.30285196045567403 0.053223561474138703 -0.05878356775702992 0.076638121156018382 0.078977581668633778 0.21813957983027685 -0.19256393828742441 -0.035586878251641016 -0.22870531392317747 0.036178728168991078 0.32671934727373148 -0.19307864587192811 0.1252533429817603 -0.20223461961086248 0.011581136895739249 0.33517164093010021 0.2103017878456466 0.10092018957460844 -0.081351343711501781 0.036886059665465182 -0.16356749104632126 0.033040150561704944 0.132493788623883 -0.0054421138900189042 0.075889159871297712 0.22841756835632651 -0.050175333328551258 -0.11846957224968553 0.18348937215329381 -0.1441127263438616 0.089424711221495465 0.047044961399876864 0.16837380870701391 0.054068334227023347 -0.081199299272233072 0.10664642227567453 0.20910301295951425 -0.18264102685553996 0.2498767394577642 -0.054521560671104592 -0.21057099845145894 -0.24980165583202976;0.0056083823631208982 0.084865736490134 0.29714935404941467 -0.043377967009937526 0.12872285538002456 0.12462147284016802 -0.047949052490964587 0.0087217903632071554 -0.026035341469585641 0.18647745526609741 0.14304536420280056 -0.097971273825101721 -0.074189310705126382 0.056040622654518688 0.23440867500033499 -0.21967112613236783 -0.031564578312849034 0.020492208801333987 -0.038518062890957813 -0.0092864301487893038 -0.03928994459840747 0.16885091378875527 -0.0085510022563433635 0.16435775401974786 0.14141574041298607 0.052995243256609419 -0.0041701064250049876 0.11800103827565037 -0.31617838232417522 0.12553643731360373 0.2553852955104528 0.1873999003536243 0.27986317472380073 -0.25560580352507212 -0.15117012915047087 0.067766621407280903 0.35682100653984322 -0.11022450357283338 -0.1715049672089731 0.16488283473456244 0.2002139252620769 -0.21113995565984445 -0.031478793678779413 0.20885095630549266 -0.032135415713108025 0.30992055802070567 -0.18436760260221438 -0.15993045934408182 0.20356389063554364 0.11149381367247924 -0.075267703427970151 -0.015818526154696925 0.13009074353217334 -0.34933711780788207 0.053005168872256411 -0.10901191193845415 -0.08355545354017728 0.22601586956712907 -0.083045957145020249 0.029469399914095008 -0.032371508264960762 -0.23891892183981014 0.21860861417540561 -0.15815830992045227 -0.070298861747638414 0.1576774181515776 0.13919159199610637 -0.21353096071697936;0.229774370845097 -0.11147456070779514 -0.21142736644853943 -0.15845530947464873 -0.18554239724929927 0.030379645910411007 0.2722514000613887 -0.16662276136237825 -0.029731478463441766 0.12462391519295454 -0.050054749829760457 -0.12618326311565631 0.093324348725372056 0.057789654016305009 -0.1346427619905054 -0.10587024092483931 0.17693815782794603 0.039003363567042287 0.19515952050987651 -0.11296302476547163 0.20780595291182477 0.29695487795000619 -0.10533533025496748 0.31680349092855503 0.06753986676707209 -0.24109797666505381 -0.084666080761481327 -0.14181756706068827 0.13869090805007844 0.016832825702108721 -0.094889046309187208 0.027826992322803973 0.26337429472765128 0.052487260960667033 -0.00028782015289226075 -0.10932016956929841 0.018806867677509116 0.22992065887950278 0.10042077325113065 0.25135846709183873 0.11537112002310107 -0.02874510528444997 0.30991847812168777 0.22675969805698459 -0.23037109398760774 0.18979643084674652 0.1647013084404319 -0.16519686676042172 0.015184188013746394 -0.0056923035214156564 -0.12028318505374298 -0.17446419194707646 -0.087633282151039008 0.14225340389594546 -0.18089623912749644 0.18046298740584887 0.18701539639660986 0.05943739546839192 0.001997086929455457 -0.30623264599459932 0.25789906689056652 0.23930898473493906 0.036980296296200151 0.11582848090382361 0.22660515998073957 -0.15939885566989412 -0.1860802458930986 -0.30176038037789343;0.21555919919674107 0.11666769779057411 -0.14709131097888725 0.1336491725285221 0.10709462939241839 0.14005700599284499 0.15335251819427573 -0.17160344877704731 -0.14160535556729728 0.17860445437266928 0.025489919738071683 -0.10117286696492186 -0.075736830456104146 0.033605096836175963 0.13775276119011254 0.15215965745507318 -0.16802000484996588 0.035299054597190446 -0.3003369089271633 -0.049342571765942943 0.027627690821912576 -0.028648706645768702 -0.0022785083936873295 0.14479385887308999 0.03853875798089311 -0.11657218404269942 0.18227903498090892 0.033837772313231478 0.17298064753956377 0.1281409768825694 0.14649570642125848 0.14919033748017607 0.16125808112202855 0.0037933127147377322 0.13055665349174797 -0.077966518620045139 0.12030816575118218 -0.26482211002625772 -0.28347710106391127 0.10354582786163669 0.034222858698967872 0.18480272005928575 -0.17570753687708379 0.15025606550922505 -0.33503413571704826 -0.30949056834665606 0.020950750689178586 0.091044658399587058 0.032632375605231516 0.26490619899540113 -0.27268858879275176 -0.26609589412911167 -0.26657646332898727 -0.23185197867830537 0.0060930332572283717 0.2108499363816376 -0.07642363154829146 -0.074641994187850252 0.011732749954065263 0.10600072940358295 0.24297141740644873 0.15158526806558356 0.037065704627146569 -0.16523823217957878 0.19859337616652623 -0.22070223147262574 0.073795936621408542 0.20989769160536351];

% Layer 2
b2 = [-0.27384077391499517;0.49339852605551376;0.60020019935902225;0.19505787891099757;-0.40262394408388996;0.34878239537651096;-0.18809729965930128;0.090227003190132229;0.28980359784340759;0.37744596595290852;0.30982761943664333;-0.57336008955186335;0.89716530813402906;-0.045820456768737465;-0.077134633766189245;-0.03861903586943885;-0.69193814801658049;-0.76599456189355031;0.36529906912983684;0.70323228087987832;-0.70536191680955529;-0.11273010622188354;-0.95198872390547229;-0.80636919235829418;0.35749770020646976;0.88188034035294771;-0.072437579553651252;0.90795059745044537;-0.0017891731078709058;0.56366482473539103;0.33522689390321725;-0.24574900544754064;-0.8589370551248966;0.29329918775472164;-0.11030657784648895;-0.68706840507558198;-0.85164681061165026;0.52577100062104065;-0.63419930165506511;-0.56012551138274957;0.14479255598174792;0.26714573857501828;-0.54875582727844541;-0.10934779041887274;0.42126879676650647;-0.95426132891494675;0.1112426509250941;0.087842154116130666;-0.96499606233043445;-0.097777997545859807;-0.32106452803581531;-0.29739446801971814;-0.12677765323361442;-0.23012912590243048;0.25679051086659027;0.40212645182042173;-0.51806053776049898;0.38764128754763461;-0.60891550604564038;-0.12230609456150213;0.30438653316349451;-0.60439579502410024;0.53974096413450989;-0.86511762241547685;-0.93420432540365228;0.98834767233833387;0.37419667772626458;0.89173193033480058;0.76573800463978503;0.91695300120259415;-0.7903742509782038;0.79356955011916608;0.054940513137938254;0.63063248999158028;0.4994389483009441;0.76508759563834305;0.61175909296927111;-0.54896032679917472;-0.69163827691795554;0.52663482329970634;0.92259613051973977;0.80284023759994516;-0.60513813346865974;-0.68536957800828402;-0.060367357361574503;0.80849552207897979;-0.61640887987989623;0.33899962965833819;-0.090265254696451719;0.59292035862769754;0.21815643926828548;-0.14331728456719081;-0.070058879354020359;0.86554746735195065;0.81843893668250878;0.20069584048091088;0.7468301670127262;-0.35193385463037075;0.53945678635371508;-0.29084541155423721;-0.36770429181986169;0.60627629811698058;0.048976071157414633;-0.27212630441593433;0.27025943511253953;-0.61430520468294803;0.45295981860157364;-0.47215336828908988;-0.52038356992209345;0.042071429792434951;0.61103116571951321;-0.14771627231524789;0.24740204034475277;-0.62804531042202971;0.31237278826778236;-0.40598071491070559;0.96508595901713279;-0.10207636702888156;-0.29033008253770642;0.16731420388414769;0.75148454802329379;0.61672020062819999;0.36089575923972356;0.97734284637030522;-0.55607068084969458;0.82902732512224642;0.78072341483548324;0.77654311492483175;-0.4349575762834077;-0.36851557648003336;0.033122769533314174;0.844773196180714;0.064495767403278573;0.35305681956087953;-0.77358447340766989;0.21548399362808313;-0.43334152782816299;-0.76092379922400744;0.73417031704583591;0.33079604114001598;-0.7033389615537744;0.55501920937324001;-0.21500770906294223;-0.35820833556148002;0.71391930104234169;0.81811225816302868;-0.45128366480272492;0.69981994969021877;-0.86145760460473586;0.26864134048509819;0.74470901004994272;-0.75387685485025113;0.83169367088710688;0.21149776830376477;-0.90067458649216547;-0.91817027733084722;-0.74780902044691933;0.7240455450065223;0.045516138525558698;-0.61944251433772823;-0.81959323032657516;-0.44213818663947108;-0.78682166568933232;0.7702627198316625;0.72327448634139124;-0.4206231597804771;-0.74612589176606459;0.45745031437793982;-0.51405793976138237;-0.8579311552935549;-0.28238595419387247;-0.14850231602107802;-0.0052368139852187147;0.44433965998152747;0.83615179170858056;0.37556259921323631;0.59258170099915153;0.66787025995739069;-0.89462415364128367;0.70597642790892401;-0.19144808601024668;0.12795925403013111;-0.96185792516124391;0.562237884129277;-0.030114224695432703;-0.33095919908251376;0.045774371312685691;0.58532537356980563;0.33387729025292656;0.62491607921238324;0.86751428714480139;0.20000350762894012;-0.12406864355946962;0.46996091410889312;-0.48632324573272184;-0.19598149171221854;0.56130506357069332;0.42503658188529825;0.3355237916778836;-0.25996660796845628;-0.641174695643003;-0.11364217056567358;0.61708726033025751;-0.69903820534266736;-0.94708583864455043;0.60877535987994491;-0.2887160473592707;-0.55651015874770171;0.61313065549498746;-0.77826622610292751;-0.4862264974045597;0.59955214325977391;-0.38799070868874258;0.40010771406650653;0.3511394976244554;-0.42848630959307049;-0.60689690007053954;-0.45310451871486901;-0.66999810594126141;-0.47323294774862135;-0.75959425204941289;0.10028943570468193;0.31223822033921267;-0.12411041778910914;-0.01907065021558435;0.88967985503520564;-0.59550702039619841;0.67230956501889994;-0.40107072211879841;0.28590264174199648;-0.041070933238204065;-0.86960123465797279;-0.036325133268846399;0.27960391211993396;-0.22856212661568442;-0.46722397833634455;0.20906558010077045;-0.16544858848980457;-0.27689754531583327;-0.89393544232652655;0.0038075249876058257;0.23878140367822054;0.88402435491549047;0.49065936487899037;0.76778487716543953;-0.095217851934931472;0.15634433068216022;0.24631187573878927;-0.51759726489289137;-0.73528166392857552;-0.48266354517211862;-0.52484795149771335;-0.49785889918484361;-0.58468000082804583;0.57025407917387017;-0.073942981526427906;-0.82962551810524887;-0.8720124788586997;0.29619388930101653;-0.75604590356547385;-0.0053718934187421069;0.23674962890489959;-0.53786659662035063;0.92233821072767153;0.49569739673477703;-0.219214484157184;-0.40673082621546575;0.79265010698500427;-0.22974979410536278;-0.96269379212385242;-0.7337658856553283;0.26800359194836609;0.096386159350529729;-0.48715110866666989;-0.20534020464089928;-0.6438886841927961;0.51642501342632618;0.57539399815710146;-0.043920710317747386;-0.81353982048650919;0.23877981654564887;0.92471695086757222;0.0018326720031901595;-0.045103245191736925;0.98445716151957474;0.42328601140724859;-0.055767747175907129;-0.95136182556166338;0.032247229991142372;0.38458904286166873;-0.83941914578787113;-0.82908282619178775;0.23863939391042024;-0.17311164324978418;-0.16078937003393673;0.076594723577155105;-0.83312425543425639;0.13796951587641521;0.65688569371330729;-0.3993198629228587;0.28076902447868246;-0.72231290738432485;0.67882189133250859;0.63607662814642885;0.50528389681974972;0.82240496667615015;-0.092974047396145343;0.41017059780234338;0.34637580737767676;-0.18732488905455308;0.80765913377244192;0.71123106463554597;-0.52814360326063081;0.12727153504771024;-0.0018830517087231461;0.88509673083533091;-0.95825102099326975;-0.37375290678061041;0.92799685391947384;0.6910141984258088;-0.79504850393395232;-0.91223330974774808;0.80794778598516703;0.10254080164642337;0.68194001744636779;-0.36703750139381397;0.038971285089367425;-0.60698297794549805;-0.96089529042202726;0.88228174866028963;0.063472402935345007;-0.78909271871499487;-0.097609708794150596;0.49192349126522777;0.05992027959336077;0.85013430631928089;-0.21226708320798929;-0.66711434644025369;0.68680922981018711;-0.66400407504973091;0.7069938174609669;0.67786286363946346;-0.029104369749574713;0.54362990270944767;0.68900931885451222;-0.19322890284410352;0.11791934357227257;0.038297213089130588;-0.40827112968921586;0.83285241029452706;-0.19176140295306379;0.81114826456371525;-0.028197175427569911;-0.18191491919898106;0.39358775932262402;0.673446003425895;-0.60974075033908093;0.72706396913872573;0.23122649892932465;-0.11764371362555649;0.30442913441457059;-0.75535528875958502;0.4168726958456499;-0.78370552061958842;0.1362480521707124;0.46989761055256057;0.83036903564826714;0.74789386519108658;-0.26123208697673361;0.41332211801678476;-0.23517434091584893;-0.11134335444599329;-0.52574216947124341;0.16572771250017054;-0.9587709972315781;-0.17527994810005201;-0.22735906328605487;-0.70340614718443917;0.47009279906545803;-0.34886810769559928;-0.23455829368819836;0.96963456925948399;0.24145808337105654;-0.1887245792605392;-0.52676014258346604;0.91693811618086329;-0.69474458321379584;-0.18897772926161796;0.062472511621410008;-0.79345756868025019;0.15321393022745028;-0.78370099463914866;0.19133114134334511;-0.038287256945360441;0.62917450082705739;0.14707358817506472;-0.57958156234794467;-0.13559176631588482;-0.1282742368707023;0.73301109680757581;0.49120313324630543;-0.204401760841493;-0.66492812620541353;0.084071875676006963;-0.95394246481033984;-0.7465321154979585;0.2717427530290083;-0.02539680316837719;0.97569383012359634;0.31909522899997866;0.93495280946351045;0.75117848463135839;0.40222816037234366;-0.81869000393842639;-0.11581274267415365;-0.98704525464673853;0.35775647910261582;0.53828587950675066;0.81999337042885456;-0.29261811686792971;0.082262122555538955;0.30584570524952681;-0.64283713829627587;0.96392904709249461;-0.98147043165817127;-0.59818858989628387;-0.062750928671338385;0.11036604523096238;-0.48189263741320842;0.97692121701501966;-0.11072975427463996;-0.88380235559217912;0.38722582215334439;-0.5224893812545327;-0.39019904530575095;-0.48531001012491237;-0.81719875401649367;0.13497564509023163;-0.45727411684412184;-0.92396149870787769;0.27209001182043435;0.19972375081995794;-0.61812746465264312;0.36967104824924285;-0.37277812626769968;-0.14503440696674419;-0.23117391364568809;0.25133350148186595;0.56689722521188646;0.19174117365894069;0.29065384571465358;0.18099890351395684;-0.67834470638464162;-0.90506211384127222;-0.71693928871027357;-0.43639095972382091;0.50882838275742015;-0.17502914043893075;-0.69741202087097454;0.4611818880126321;0.3381304711840159;0.27087578861665329;0.082635840571998895;-0.49511705273572398;-0.84337888710345865;-0.21941968290065864;0.89949826038687009;-0.93112761080102413;0.17589481111984889;0.76140232773382222;0.16598917281560743;0.42641261140266551;0.43636115379882395;-0.24360758985137493;-0.68729528178212695;-0.677976792168692;-0.077815002269758016;-0.92347515146604842;0.45295123617403449;0.50037668704728655;-0.095711662622541327;-0.42075413490229024;-0.7092175387831372;-0.012227350297114286;-0.26311294634400734;0.55902335439860862;-0.7167073076561068;0.49210382904024391;0.22961721868446541;0.80669956958945677;0.43378917238282588;-0.75811839417552418;0.73813696706262255;-0.85360885741302195;-0.98739798354048192;-0.37839196710973988;-0.19855865702269271;-0.42532678445383648;0.29702373355989536;-0.47171016940176413;0.96289792431647292;0.34997818048963436;0.32918996278801599;0.57223681669017579;-0.84763601015305678;-0.50622466582600789;0.01886729140041319;0.72722816800129653;0.98088819190891308;0.21270380615754625;-0.94248235729891583;0.80269113297819428;0.57458054353920041;0.024032245167393378;0.49804840180774995;0.22422918295980357;-0.15691596720222226;-0.49520341405276508;-0.58217304141444925;-0.34660689640051862;-0.2783216065272931;-0.18173765640001932;0.023631643844264881;0.810124685750089;-0.75821003887253791;-0.63227698529568332;-0.060288752719535411;-0.37160754390492201;0.85401672812184193;0.74909139181345019;0.9659583162042652;-0.60359341846847758;0.63944545422201049;0.22913336411484822;-0.5278967224407346;0.58196864042741836;-0.13230432048654381;-0.72838607435532166;0.14468924989987206;-0.73125010124102929;-0.56049361058560065;-0.069410135484777022;-0.020176713496102738;-0.60004736345510368;-0.75331544045755328;0.34776447111478864;0.97581157578210886;0.30839842471489454;-0.53881944563331363;0.65042262297179321;-0.25769462838798013;0.39684683694005668;0.28780997611063669;-0.94007204284536972;-0.40634945315634596;0.80614319205464702;0.32090082997805841;-0.38977993719590748;0.15772942395447925;-0.25302458735489619;-0.65690247932618451;-0.91057094089786328;0.96014345643845611;0.1618217722063407;0.22769803768303129;-0.43620235499146526;0.79996655316790521;-0.11859819810214357;-0.50587981220551226;-0.90088648927964587;-0.74886569407033921;-0.0063410505014165905;0.39659759024527008;-0.35160933583431192;-0.96879736475560529;0.29551391838901858;-0.61256156309771426;0.030651109854476794;0.84609282220422555;-0.063901993009776961;0.72461332470658435;-0.15710328524087752;0.77220785524583502;-0.25556889828194529;-0.72092644008617401;-0.13625260870740127;-0.21800352310091603;0.95098531977817924;0.95436852840626207;-0.38589343359422723;0.84690957733708594;0.59735503337325568;0.85996318956900875;0.23271447385534955;-0.26965376049050166;-0.18236814193318993;0.43514650843548663;0.26266605174916463;0.14639724116768074;0.62560563771984323;-0.70104962391568804;-0.4609033000986329;-0.24659644996500366;-0.78191880521729229;0.4780367351157474;-0.34352339737171078;0.19025256344738445;0.78281559419368318;-0.41674817124489999;0.47687184858930737;-0.046909616957730507;-0.16111562985424968;0.65313721674159486;0.048243207986294036;-0.044769298325875138;0.71480445119049407;-0.73279607750659692;-0.74166997305066507;-0.72900801560811168;0.29346865166799413;0.943076472075007;0.17465701205337697;-0.16097346437078522;-0.97590732763101196;0.78060958933790647;0.94610379812175127;0.97232313262399539;0.8313795275646122;-0.62506988790581952;0.12184541710116817;0.002719306728316414;0.7239423780521772;-0.2536123747684923;0.79604460310988479;0.22699559771365327;0.53370376606176417;0.45181528513677394;0.93559775067203876;0.58141856426508687;-0.078322173926417965;0.52211038772387119;0.93054373834457282;-0.48209619784179858;0.81996418203173438;-0.33134271031090518;-0.63257615631247843;-0.13651788818537602;0.5182610360584563;0.82561380987274824;0.010379136636989004;-0.25058190781719314;0.5368990787671406;-0.60918826322892095;-0.046519140809651777;0.16268149074666638;0.71122868014199125;0.33714853626051228;-0.60903698527122263;0.85847394579295722;0.19945455516532964;0.3109112740411234;-0.24706717921402746;-0.33801746090268747;-0.91787507414850977;-0.1150150743558267;0.64004076096198903;0.29793359786382201;0.97269282177730432;0.18947289113169824;0.034526222156780667;-0.84821405586116594;0.32550241964605187;-0.17440420217583763;-0.47388097421947301;0.52865672171728328;0.75409889436077371;0.096056912718903154;-0.10410190222686795;0.85647103101337374;-0.82949288022668555;-0.26701277540621204;-0.92278071543712192;-0.89469685980907865;0.27355700524400067;0.015501807123159739;0.12386783236120541;-0.43555663243165271;0.35242530969244756;0.25342902199514261;0.41353992210115198;0.23296421311182666;-0.10007650269606486;0.44792970768917761;0.96542353112272017;0.075199547295327976;0.55978032128617961;0.96762422262335168;0.26460022767772301;-0.44732244555674183;0.2021213658513584;0.27289046414291679;0.80669404932922339;0.22959030833264674;0.87677371192843356;-0.49046313405680353;-0.5993030714599813;-0.11589733474361763;0.74820817430604158;-0.29650688861124513;-0.77684403521564549;0.53017215398145334;0.78054851212565213;-0.61396961716531206;0.34130286855680841;0.03409345000241968;0.71701147294113288;-0.40194849389858794;-0.3873798046255908;-0.54868203355270695;-0.71044198092527355;0.91458822736595546;0.35659657679323942;0.60545652753606216;0.072077969145214901;0.63331133144494145;-0.47261553013944951;0.39130945483996027;0.6928693925661481;-0.82311461486298299;0.92480049626735294;0.40536409045987781;-0.84073041483282829;0.8818707662871812;0.91535583382888641;-0.2276743445754022;0.14417792943374425;0.6326908340908175;-0.83327405331945437;0.72973359095187484;-0.6312464418603988;0.667436362627431;0.67495029631653114;0.019989268441979211;0.037357204483269027;-0.26235674748596527;0.83954610665258822;0.39781695754674395;0.96172037070974503;0.92649599308950525;-0.8129409960530275;-0.25310732740111269;0.056453417644542571;-0.83031108405785192;0.40816132678771716;-0.30547596360068435;-0.76965721621373817;0.86793409988163994;-0.58211238628103523;-0.97115182354784768;0.73485908400940481;0.35389625333938662;-0.65300456494187631;-0.63736388333002036;0.78250980847626528;-0.82956739353895126;-0.84989394295505483;-0.94000765655654017;0.1498341451583699;-0.34443333173919094;0.054735986515477793;-0.19099019528528885;0.25312348788194472;0.26104179718351334;-0.3076934135700693;0.90409344066088226;-0.33564114361343922;0.33895786673254458;-0.93459387127042015;0.7141472676986288;-0.33085463086791184;0.83314601820532841;-0.50537591082733846;-0.83543281260800162;-0.42434983394034781;-0.39249249922179696;0.24441433751548364;0.15901724098815487;0.38253891343762497;-0.70119209949875017;-0.29741119415266343;0.24298852080449265;0.71160223672579381;-0.055598669664035379;0.37794184260893909;-0.80356835085080369;-0.87042860859944893;0.63953690173595035;-0.809233241800704;-0.57851566489381268;0.57690368188089514;0.35982480140435263;-0.062836437628732672;0.7873289878229025;-0.18704593783068044;0.31292723121654081;0.9086224325431741;-0.39373544028978569;0.44541320568980086;0.50159122909654574;-0.61872687147088024;0.13774329330147311;-0.86291116414235969;0.37045878575819308;0.33849133178413809;-0.72575032946074403;0.77311153631266349;-0.65117302827583379;0.082873172875306114;-0.92254321494284142;0.61850548596149368;0.18809507061250427;-0.18525618370587432;0.28918045974839207;-0.25921765326316532;0.99361461533686157;0.41087869610554456;-0.59973575035442217;0.65644855225693743;-0.38839103601617481;0.050251905712896602;0.24069332883416469;-0.98557804151535178;0.54452516700239451;-0.57220856528698771;-0.58393671665552938;0.58022736382414819;-0.46202250966798009;0.65158475267188154;0.98349201123030572;-0.21283149780832356;0.79321821320363284;0.068886822354648977;-0.82751048551817785;-0.16588294442402809;-0.95863373701087662;0.80003657810094564;-0.24734444793368415;-0.96611786644493203;0.0032903779695914082;-0.11392739244166446;0.70540381303489585;-0.00079863383210563481;-0.7631678005728415;0.58224028936607075;0.86626220653198172;0.70417148253783557;-0.68551841867980667;-0.82988691002900683;0.25530578364581968;-0.79447109484554601;-0.9244830070375194;-0.34628262027772999;0.28226965869080262;0.17036197221740301;0.33776957750049724;0.57612110132202576;-0.24197036333813124;-0.83774416762423165;-0.13511703544964107;0.56300491745083681;-0.37883688004480048;0.46497794476782306;-0.79263829249021112;-0.65153631171328519;0.85002382554990463;0.57149327765659153;0.55642326064505832;0.74732555342247764;0.80800535273853713;0.85254271766927325;-0.19446461709613452;-0.41734219066625355;0.534639672647653;0.87422812113579396;-0.43730837336067407;-0.26006917269323421;-0.45225189505553343;-0.048593091076892692;0.9133685769870149;-0.79076081292465117;0.077756606285670035;-0.38005090201212105;-0.69118434326627487;-0.14945392083632633;-0.35311560296051525;0.11833640536790653;-0.62460316775600844;-0.57318068778091169;0.12602612341579555;0.81061562747549087;0.3957576259537825;0.75709663797762339;0.48923039199591423;-0.10403011744014659;-0.75532389623562868;0.86615724831954954;0.19012481988425126;-0.33479948429575584;-0.41475165168636852;0.009821416716435015;0.68328993006363092;0.88651062913176781;0.69230355658086873;0.085195791883234853;0.042828570031584363;0.052722737056033246;0.24943547719403242;-0.4361234731845865;0.047934083730001929;-0.3360450000289833;-0.44581751508022416;-0.24692361289708131;0.96000619615940108;0.49164255789297723;-0.1118174400974971;0.68047664256490992;0.002683004978655628;0.10839698435271838;0.48752472512983552;-0.4468067943790896;-0.22449902456409518;0.50331410543809985;-0.018667063261615855;0.32660339450237663;0.79259751269551237;-0.32292945184719501;-0.40687237499099388;0.23860201660991601;-0.62184389496978165;-0.57146513025484924;0.60072388861567971;-0.77431451008556096;0.34978442509199215;-0.60211587728147109;-0.25360266456687947;0.083768404284270917;-0.4961102323864513;0.42924414917232795;-0.3587410005923018;-0.91723826141022047;0.61502006832681111;-0.9040306278675847;-0.40106580908880773;-0.38359374146594999;0.075125769016536878;-0.75564316299637602;0.58818617731470202;0.0059851866829744513;-0.53822260242214526;0.65343663384458006;-0.76471600483959035;0.98661865873321009;0.51424734597600841;0.038018168766924466;-0.052481960508047584;-0.44461976584033275;0.91311246348923669;-0.35016700420518587;-0.090144952981656118;0.063237713925798425;0.55851319434075164;-0.17796526160426568;0.80866836429127331;-0.75006305864224654;0.742259767930734;0.29428178367837127;-0.1317836371798406;-0.71980690502542322;-0.94738282799813045;-0.26282884728558559;-0.95668392294840265;-0.058160511453315494;-0.73478807823441172;0.68515444895178834;0.90313671298357046;-0.5978486820698734;0.46837874340904639;-0.87946109236336845;0.026434011150959152;-0.7574563338285627;0.28276624632329939;-0.66980542024841672;-0.86083506791550635;0.11905014668870798;-0.70379744880177464;-0.25607696920619227;-0.59447692111851813;-0.98292418957385563;0.61710190004388765;0.79513361043483011;-0.11846897520961364;-0.26920166422707792;-0.26858510582896911;-0.41565217497958412;0.66969967490940907;0.94168624931159128;-0.56532687698241491;0.33021513005405212;-0.12104334487423746;-0.17344443240038282;0.68883024683882443;0.010368453939159585;-0.53188607756132333;0.41462907642487501;-0.1308025666139136;-0.16580057708304688;0.85702639503647515;-0.69605551940082655;-0.94656222424153846;-0.15566593733404599;0.88390033192302953;0.45610221333279583;-0.37212710471835825;-0.68480295790697066;0.96528468139794299;0.69857579341080556;0.34614921702522972;-0.45322144691257327;0.7944558915785539;-0.45847073959131129;0.7069531964522322;-0.16510192935583179;-0.81940796642943659;0.8649856526621279;0.63589670558728184;0.85607843238776848;0.26707085538956826;0.96489417916352893;0.25276103915296405;-0.147332523028742;-0.44426888778160745;0.65273451683622363;0.84224562056853491;0.90309640244725742;-0.66069444840517721;-0.63378159041294391;0.88386868286159237;0.26308790637732432;0.092755891113576683;0.28363493064818296;0.97247350896943707;0.61713541272965367;0.81673157297096555;0.11707490419931782;-0.37254772542567655;-0.11366634088561521;-0.45591875954894923;-0.70251690495628316;0.52779547590641906;0.2192161759669963;-0.5652075780557323;-0.062678462399058985;0.58301153611463863;0.17008518528579228;0.81680988674559196;0.49728940148191586;0.61344118386455126;0.44528321359210787;0.67662848569137812;0.23492433204829369;0.22353918033591763;-0.97557346438464754;0.13215799898624728;0.70101383882316304;-0.09129629523843022;-0.32054325027796632;-0.81888395265313585;0.78498665956451485;-0.11018107803453178;0.77959775077031812;0.057737325946936036;-0.089747268138420697;-0.96062364688682778;-0.45552060108073006;0.59811067190759426;-0.57970226632746558;0.28143315230537191;0.38406169494593895;-0.79436391821814067;0.48067223154989835;0.94752084961065197;0.50572678466133825;-0.58052160729885482;-0.63759440041635806;0.80637739755915094;-0.45582227434023875;-0.62122946814778479;-0.13081961601007663;0.81918090483418737;-0.61284402741272315;0.41929129438887774;0.52676137162540915;-0.44297301535392131;-0.40762274551799793;0.90973357413765277;-0.56315434540512277;-0.23236339768754125;0.33503427123021184;-0.25632926159077712;0.37011105855083115;0.9369375794882252;0.33412573927530997;0.38720021783103042;-0.49876440064519595;0.74148024837032189;0.54975907366487498;-0.71761579792913466;-0.49250715045505378;0.1100927412302142;0.021585638754326918;0.94064229056693149;0.55311444659521491;-0.51404749638582736;-0.8081997736488471;0.59719933791756874;0.40269967120510103;0.84340733617920671;-0.1979887528140678;-0.48113803854562093;0.47809717563706999;-0.18647212271964292;0.074496605277348082;-0.67488441127579502;0.92457954323229974;0.1318796323978943;-0.73024394800604098;0.067518102827261658;-0.52116170988473254;0.71133269156821055;0.83259777570891402;0.17329368876975887;-0.31667637441125068;0.97986738721142519;0.35254168730105684;-0.63783028546902265;-0.5283565797235461;0.47098248597795217;0.1114724896745504;-0.9052187006922352;0.11619876369713514;0.94312030593288876;0.41059497955171342;0.92546084880403845;0.78798519675117029;0.16048513505335332;0.42386083856902784;0.68333885813309037;0.37843744339059737;-0.66692705685945608;-0.71800761838974203;-0.31075181031015675;0.61279709708071184;-0.98168355219460768;-0.51815064706976122;-0.9276349400063385;0.35267820484507012;0.69932762218659106;0.52787151540799382;0.15488519553704966;-0.45529007063401411;0.82428384003930966;0.66221594490363112;0.85718272373506699;0.76542367163790248;0.52663683215761747;0.21452090197225326;0.48987639815763423;-0.40224184424548282;0.43945818527028818;0.79937431578051032;-0.8979853800836316;-0.31130173638023634;-0.51951318275010649;-0.8502075111059213;-0.10262579112529981;-0.85287312685337746;0.79609606649853215;-0.094710474244520157;0.057097552485022199;0.93504257821188008;0.59486796178425616;0.045292011099132022;-0.34774281088542369;0.67000694768878832;-0.86634522285761351;-0.58367438664871651;-0.42435191084246948;0.46202506347361655;0.13785229576891653;0.24836397181571318;-0.47573860259073841;-0.65109593494251772;-0.50710325141357326;-0.81145055435197933;0.70081892093690423;0.74456703243965483;0.37837981779065266;-0.52295287730881501;0.23103225304487565;-0.36832656930418339;-0.095210105269355846;-0.67028891295872162;-0.54639844802197035;-0.90163321262620333;-0.39787074606114486;-0.058862589100989453;-0.31189934142567333;0.65353017075292275;-0.71062830743382077;-0.81711342320054681;0.80877700846617373;0.80176382470380902;-0.52474217936297407;0.019155299359028766;0.099638625061117356;0.27755865832407539;0.13964907517698996;0.056475452514070303;0.83395838423876545;-0.95824693646430248;-0.580753158638316;0.16312852789933449;0.48504973470528268;0.058276657745692746;0.90279572558483767;0.962857507556095;0.58768683368353403;0.45335957414409822;-0.68750281315373829;0.69411028281614373;-0.89257129005185099;0.27985992997003856;-0.11459251046347593;-0.96037869251810093;-0.69172912929306463;0.24121127148280036;0.85568611196590472;0.27777524730599512;0.82769346481871042;0.46913180724785142;-0.23588653935328929;-0.27957029859334248;0.84458563102912776;-0.18740071490783625;-0.95844381291042524;-0.81153551504576138;0.39926503694041476;0.79530637776699065;0.65195141000253432;-0.033303112787483297;-0.44554323430137316;-0.066823821133166497;0.40188567085307692;0.5251692810583537;0.9775540937787518;0.42811155728957745;-0.089426757151244929;0.021732071318180796;-0.29017906698280116;-0.026229638337540374;0.41332961483710917;0.6369779147044935;0.46348607014320126;0.88351590826117354;-0.29736878418306922;0.33145573968326569;0.77013042959668709;0.37225776869673527;0.52188103061384794;0.098542254214991257;-0.85867826211877141;0.15524825637205167;-0.5929104775675853;0.030857922251215683;0.89923498179310457;-0.75609565840963733;0.9285890763219582;0.71939663706793755;-0.87944338220678975;0.62301857850922127;-0.44780617277870854;-0.9503957646315776;-0.2876726904607248;0.2686149218205659;-0.26793451485351655;0.021277563768246587;0.9868936308023476;0.43518789263218033;0.74077043415569166;-0.14564942038003492;-0.068500591241929115;-0.72595285172848822;-0.80928570606752204;-0.032463265862607428;0.8458381958783685;-0.10713241232804908;-0.37671742739889647;-0.50356220550091779;0.87003989878950183;-0.30545617381795465;0.7314543976344775;0.85160921735420136;-0.32132366710156335;-0.45991268342852326;0.050907395150567573;0.19356062986672046;0.13072203222056739;-0.74943975622215442;0.13644232799153061;-0.057569934630167671;-0.45071115131081863;0.95466748782062605;-0.56937485907334617;-0.49125302215573097];
LW2_1 = [0.39162260799066168 -0.07280016369531464 0.065442268312313381 0.92181985261560906 0.756327496709849 -0.80324809470529657 -0.96758282609663659 0.79939232016642248 -0.48995469418858384 0.75255480790014084;0.10743296555180958 -0.1945985472782302 0.27071076245706949 -0.96254082355269188 -0.072505797376862996 -0.75659420426437918 0.9719187253798347 -0.051824465251553389 -0.30339433994741782 -0.76103943336558955;-0.40786398330536422 0.88596312532756494 0.91404298581503562 -0.55476026213386187 -0.45050038286085425 -0.025656065534462251 0.89618760999306235 -0.88643168072740663 0.79154065617577862 0.28126727176461608;-0.91268558212236728 -0.80423926113355682 -0.51282269857886698 0.657155836123686 -0.052368087158012763 0.84311009333448939 0.56545921578540792 -0.18435768210441544 0.43510524830714858 0.1212965184429278;0.70785461742375266 0.11464809804289446 0.2561810915381309 0.5543615021066115 -0.93863791064317248 -0.72749456272102742 -0.84768203455303714 -0.32850154817696658 -0.47475485769207615 0.71583827224225849;0.19324961459968909 -0.36025769347579017 0.49102550600247502 -0.3930054616269491 -0.54201690594066443 -0.70984689223623032 -0.1631243338315021 -0.3917833225154112 -0.74141901594448856 0.49437727182934049;-0.95604097177939829 0.87875114728367587 0.70119092363723334 0.72233555569924635 0.082525798136835943 -0.33092046838632028 -0.2793501444261412 -0.40527690308549402 0.52211129285329805 -0.93172893888247232;0.86437588564912815 0.23776069123708946 0.34285936152222063 0.85313092515485356 -0.20355742686750447 -0.091208004414664909 0.97097487491191736 0.94073371120702398 0.6058811252048214 0.70170835776203344;-0.97434328465078202 -0.071735886680611982 0.9339671097408645 0.49806937773297455 0.51000839610359183 -0.98018919849849695 0.87891307843886435 0.15023748373255891 -0.46978031765507472 -0.063126373968219157;0.27948231236667531 0.75681779794691839 -0.99216193885154502 -0.11512942978071304 0.66214872517128287 -0.18298178686875172 -0.96882820342811093 -0.52567724550771322 0.59822206698833302 -0.028955614678440548;0.57536664197754506 0.46520832991474159 -0.83783339763287767 0.085310333011822254 0.11899429934105925 -0.63684010479404618 -0.052754577889997711 0.82108792047076473 -0.14179381155702167 0.030147710879463278;0.05339757105993722 0.17220366041743823 0.13554399078384097 0.74793955073482421 0.1312280374469251 0.74373304451738642 0.79275103099941813 -0.9214026130210079 0.77475980047920545 -0.22143823849357189;-0.41619170903071884 -0.79065040943030951 -0.32532511304422074 0.95355271654458751 0.19524358223449212 0.099133802737901788 -0.71118247079498498 0.11189683456332997 0.55543699179615358 -0.23561255807706308;0.25548212990971692 -0.95181977615909041 0.21298016281490528 0.19241925207416244 0.13229161005907833 0.72250507449066825 -0.50641682085225281 0.3486672179245518 -0.468963456233222 -0.58945167682525601;-0.14776909467252367 -0.82800208807738362 -0.75085885903453187 0.17245161537529369 -0.043286487663265177 -0.88924368143553301 -0.73214971943050133 0.86281861800236104 -0.57892732115776402 -0.78011464380182449;0.093976759453508599 -0.089921013693911755 0.16279088136491229 0.76324000484411925 -0.31881550135809428 0.022799651268401611 0.406404485919374 0.97513898722596537 -0.24815174016136549 0.42789513620582842;-0.6141747845274218 -0.62630137204910619 0.73282598722613113 0.57796549444422018 0.62321154714792415 -0.70516983154065005 -0.33683451982826446 -0.65391582856678498 0.60086031759820324 -0.95089603484160257;0.48574673265472257 -0.84616334546566907 -0.73732897184863133 0.025490363235578101 0.59409929391006733 -0.12171189185695404 -0.79182670247269316 -0.99369055127489359 -0.51471739453777776 0.99326248550024565;-0.5722210527416447 -0.34008134519118233 -0.27278109598153494 0.10005037300647281 -0.43338948954497925 -0.088872303928831789 -0.5563294670253357 -0.75240303189965008 0.55882334837249237 -0.84550275423588517;-0.79683362827582649 -0.54080521441186646 -0.8208383163732097 0.27946835386602908 -0.57351574484065426 -0.36347260258070918 0.69881097546358006 -0.67033591624339228 -0.44159825660563184 -0.21604986964652745;0.78836422912086324 -0.32677702999813446 -0.63134043610680046 -0.3333369936251061 -0.49732898711843559 0.84750053035148987 0.5736055517898706 0.14479920163810231 0.034093657659104493 -0.33381856914953562;0.64232047970092454 0.10491556747966616 0.22509593025907909 -0.34064673631376663 -0.57174467435896448 0.44232305544775802 -0.62729108857098947 0.13487163011396203 -0.47071785246566133 0.30833539246347941;0.76317253896527992 0.92789374102063005 0.8523347840285147 -0.70288474601007367 0.10732353856578258 0.27212173536015682 -0.20974873878560346 0.51582403307199909 0.23810219939214036 -0.0094545875819713205;-0.81950745010647918 -0.55052863891866777 0.47314638793470615 0.45104982161302659 0.054207234105838033 0.89178229512994334 -0.47885094759054136 -0.7758448091043918 -0.16420978264489516 -0.94636532993362121;0.39772650491632666 -0.1974817545443032 -0.98676953729300843 -0.25771072136978834 -0.38817373011229594 0.45904675056400185 0.19682150551911312 0.47089609523310044 -0.36311196925149675 -0.91670693612379339;-0.6565528264167344 0.97854881431358776 -0.094182306573074928 0.209997980425526 0.66698472477709925 0.044069854979970027 0.33470068348868126 0.066261062859167066 -0.39823955187054189 -0.19261305230318831;0.66245339147212046 -0.07381313924643966 0.1065464939463404 -0.98138014448918875 -0.83852947345208784 0.29335801455562355 -0.84574984261116049 -0.071481870937362413 -0.072485299367053974 -0.059571826603951841;0.45189676850792648 0.97197261271029789 -0.27609199113050437 -0.71814627160785971 -0.19988111924966886 0.46892141870429299 -0.21767963937437138 0.18729175358211364 0.64035039925567627 0.90198591121304927;0.54961732602046454 -0.0040278696134559092 -0.94836215809812929 0.92677106227680095 0.79803468193653748 0.74219847286718166 -0.53570118789707954 0.96444598510951607 -0.10248384826610901 -0.42287893268418159;0.52447093136064082 0.97353275805598738 0.34506242677395826 0.44043062155588353 0.74574177386792262 0.73011549685938903 0.88728592155029018 -0.26907145675551586 0.91081118085138113 0.31220739728882302;-0.87997073263421133 0.075075558528566136 0.35196282346596752 0.82526658148105769 -0.54837707903987754 -0.53951470933901913 -0.27927427961162554 -0.44902773462481993 -0.10041837095369285 0.3344979820113918;0.22098594952405895 -0.73444177561711221 -0.24418228757104596 0.45471213972620883 -0.52810943700882296 -0.39546455268253239 -0.41474983255197129 -0.34262178831301804 -0.85671027248271636 -0.97425041407994795;0.79391377221909631 -0.32184134752788307 -0.13111186220672827 -0.0052194209255888701 0.86364244314107852 -0.17790635659339746 -0.80470107926364198 0.7735264872540305 -0.61721093629857426 0.43175119656562472;0.033183594570459524 0.45651983223043785 0.065716445369738585 0.27258958751585582 0.29967907603555011 -0.61393232334655967 0.29018650552201214 0.55014187895178412 0.11397482503687621 -0.057584821364037329;0.011899911569973021 -0.16921815160497372 -0.89356914424513612 -0.029133029560280493 -0.4376217950087844 -0.61053839520497777 -0.0081431953173948784 -0.53567218169999886 0.89334918771065996 -0.82110902253030904;-0.48554759273034093 0.84041771811530308 -0.53678977634479197 -0.17973839563252611 -0.76147258395196527 -0.69814188582990844 -0.46513754659805534 0.30115053548618526 0.2323845762329948 -0.085346599197207065;0.93708835370331467 -0.85712713755940273 -0.14523978263081355 -0.44683572928684856 0.41590179764304497 0.70637689473591614 0.4624642559080448 -0.93371082301123642 0.62401749150106423 -0.26074547690038141;0.16019240777103746 -0.23583723607785581 -0.71153015776223916 0.76999574855278252 0.14971409676694128 0.85865259647547099 0.89448369984889042 0.94767591628062797 0.12398690385544235 0.8829353615623089;0.93629042918304184 0.12287553287877999 0.97461203064120339 0.8084994717472398 -0.74241658933813659 0.55638027150368652 0.92974028478640514 -0.76641628095338776 0.077507901961397049 -0.5034116947304379;-0.91096306539656469 0.5055263471723298 0.69296325342235798 -0.088951388995138173 -0.66707981804376526 -0.68160470482959201 0.657237987984432 -0.7126689775967151 -0.97716123512037889 0.59098609262357216;-0.62030473879128656 0.46645405045484595 0.85306284392141141 -0.16355206267303507 0.44256144014951093 0.45909904366050885 -0.61881700314926991 0.43689149181286591 -0.42143299798104372 0.80559827973397358;0.040358408216153885 -0.23392551678841 0.74430019871914399 0.10333608748134547 -0.94417808982441409 -0.61309103824892963 0.56776322648406941 -0.34426995187812165 0.30913923823189859 0.81158900650662202;0.2826586975967838 0.79985623755854751 -0.21031975158389352 0.5773122847756722 -0.46634476293753058 -0.083192848469541517 -0.080027683563979587 0.35621379835888867 0.74415391884358928 -0.54439110214173503;-0.32099743905174699 -0.60914156027434407 -0.24517124395815257 -0.87808535946767918 0.92182480773218778 0.70916228317697549 -0.74976706759743394 -0.79555793180208345 0.42401203675236387 -0.33198399712868987;0.29651085278332329 0.77679244796463587 -0.94623461081540539 -0.067935077790440612 -0.94766985917482593 -0.73550652236142111 -0.23288961619873078 0.11987482033752353 0.46914729977069664 -0.96195946982421954;-0.28723676237843271 -0.486962954648609 0.54697986403657328 0.54536898398238431 0.59066423416447644 0.22912187777669679 -0.86277905081953543 -0.75318298866016831 0.50894332750201865 -0.16203899575143688;0.69802018790201736 -0.17075869901429075 -0.29465380208002101 0.40895287368909011 0.56636393901973836 0.27504215837197593 0.8185082553798334 -0.49722328505182978 -0.87583202995582965 0.62901639586726721;0.083557518599911187 -0.98586097545445528 -0.60047210846818366 0.35588694395477471 -0.8060745894160799 0.50109932845420635 0.9466058105643641 0.1395957794829901 0.55221618861713351 0.67609844527319418;0.34816478552408592 0.082189330230033747 0.3760802948433844 0.54690556972561899 0.4304902953378511 -0.48492816578742687 0.39809702799202346 -0.9783380702763238 -0.96138443156193454 -0.82384966181430275;-0.48566746276636963 -0.30732691969492482 -0.5750736397178331 -0.090255042079004186 -0.90541204052179147 0.097914919726369884 -0.5075679571071432 -0.063828083836692404 -0.30065238732525834 0.93800798420897269;-0.75587622441517766 0.2863221257616177 -0.77509278185829356 -0.54634698961595374 -0.87125099925795391 0.87315217137976187 0.34801780935879051 -0.40915461008069376 0.33601889626064702 -0.69256395321067721;-0.91355602329355468 0.85580185111549234 0.88053128341616949 0.8648635174501067 0.57746838666175582 0.90066879141577716 -0.81904871764089493 -0.48040668685149296 0.16702164498141664 0.55323315568449571;0.77317575153577267 0.17409802435587526 0.7104544265094308 0.24597658742226389 0.54842723663290416 0.20863792123458075 0.9338890150553073 0.039445763422794947 0.58436336075320028 0.0027314214078278322;0.5048451398122219 -0.47709991149510128 0.72363029213550267 0.46558537570648179 0.97194708149943454 0.62026737661919862 0.32936930087636257 0.0023558036215205721 -0.83964399766247577 0.44784806326891308;0.60306193441751954 0.7962349301078786 -0.74840987263134717 0.66894131120507905 0.88827766280839171 -0.36791222730349132 -0.77187144307313815 -0.87045359658815613 -0.84654075943867468 0.56258182480462626;-0.1183608735500585 -0.95516611900079607 -0.54006116013543082 0.18989884974200169 0.46259926431656728 -0.45354985168914863 -0.83279172063014362 -0.033234203654848977 -0.0033547569039687284 0.89750353681828066;-0.84637479091050793 -0.54296943763541972 0.68531062075739524 -0.21302417618500857 0.91443142439993419 -0.13886026831865866 -0.92389807586564143 0.63669475561160394 -0.64755499325519139 0.21757571837812212;-0.6868068204797676 0.42992574812558709 0.61058737904297744 0.23363526601031756 -0.73692469222879375 0.49467204281752841 0.14494882600364578 0.32027256991969022 -0.8190963730973333 -0.38773923001533678;-0.50407733953687928 -0.79906350821759042 -0.44658372403766872 0.35309439420671718 0.33558788293418201 -0.069787330625284777 0.67762240184537803 -0.61081401945396308 -0.57590980663385827 0.78868267093874123;-0.84073041211784416 0.43160806899162901 -0.3759179705285689 -0.96240213428213728 -0.23790699931433862 0.96476078995072412 0.53380751270693561 0.91759575490789613 0.10341085626525273 -0.28301516481174421;0.70396282887904338 -0.51812331788921062 -0.23776814479730005 0.47967334223724933 0.078340723755627076 0.69534837365445434 0.9979320603513252 0.90768929990671565 -0.82265440127000555 -0.76343352171092904;-0.68415007977515341 -0.17551286370459324 -0.16338964902274658 -0.88984298802217909 0.87443925482054663 -0.35431838693698708 0.21151628503018727 0.8129322483318715 -0.84620825154404433 -0.27547259154028308;0.22942826529883414 -0.4131177534353751 -0.86478508865694736 -0.50904406465474794 0.78473535499071856 -0.64266422071824147 -0.26642251585475968 -0.2394860801715582 0.87546227094031637 -0.13127929850642389;0.057891931190913903 -0.6971802155041571 0.89163716518100744 0.45595331780622544 -0.54969342339579652 0.71115544032533262 -0.96309053710044434 0.28315620434793459 0.017969989539645095 0.41432937561989236;-0.61593150519804019 -0.38104524647407506 0.57994309193571136 -0.12810942063325223 -0.82406956573937762 0.7201736542149052 -0.52895102143232453 0.63928623926046413 0.96508603730314091 0.78811692594830507;0.51693529289554097 0.2711340862835166 0.30536924284662631 -0.99149925763639135 -0.56779662169217315 -0.79091405315774133 0.35772190723634084 -0.16571560078628034 0.43769576669650573 -0.77978252613878229;0.22654665116069661 -0.94344640370769373 0.95027487032102165 -0.55633194098606276 0.35824349202507755 0.5192385941859966 -0.14288799240414837 0.43335911750760031 0.42241258864967302 0.73722733984989919;-0.69302952299472298 0.25011253142641221 -0.73845423959533729 -0.22416480640109479 -0.13272452118604752 -0.7184763770424254 -0.66423544791962053 0.66273708208793036 -0.40962715009453654 -0.82343766506822724;-0.091055822175628007 -0.59298044529749683 0.032333056863165552 0.44995946464867809 -0.030529241708738431 0.21336636885379509 0.084731141473015803 0.3374109267000942 0.88745838267025701 -0.57184084659983714;0.36302714273293268 -0.20240005402424643 0.06322085290447986 0.53488428856841386 0.44014767667120525 0.58411163095499885 0.17695751440964613 0.11419652013586659 -0.18850918852470397 -0.98539981258769438;-0.43566460361805232 -0.072053578565690515 -0.73487650369521118 -0.51835010787467406 -0.36277983842755834 -0.57466104784904015 0.62377076379389929 0.91918842325203365 -0.79911062284883805 -0.20663074270404486;0.24839653954243582 0.59992648129924997 0.28767787783459697 -0.92716540381001433 0.67101183029846134 -0.93390050930197599 -0.053980610946062685 0.78693789398940595 -0.9188223174180975 0.34529031551305633;0.87978065955436768 -0.55446258338314147 -0.18415428779538667 0.90485872279856105 0.63585400072159504 0.60406884820535767 0.83356168847191769 -0.74699679832482513 -0.21266266361422453 0.57420734177931698;0.13386968577414635 -0.23065604321696734 0.38346413111943461 0.061907246410659415 -0.39408690372154392 -0.92083817615062724 0.72616928680711912 -0.0940169560060507 0.1949924719827798 0.035801342927026893;0.38421650936563806 0.81205557498444048 0.38939514221779936 -0.67743119813087704 0.62764528195321245 0.48019150028357249 0.042868653992428417 -0.39184389580473133 -0.97663796255304713 0.11149131008244664;0.9528987037375567 -0.74310678542868458 -0.39444513031967399 -0.26888009999202839 -0.94613426063309813 -0.32254644218852696 0.05747088310791075 -0.7452885443856142 -0.39918589815530026 -0.014708466444247666;0.79331866017065689 -0.89787398511658723 0.66435064238857489 -0.43983214250794395 0.67066803987298063 -0.1692025550923261 0.35774748865635508 -0.36009976871654753 -0.30802078492488583 0.86294802184030395;0.29706798188409544 0.37528424663776677 0.54039095869802523 0.15918554856037234 -0.022772387803045902 -0.61189972810655502 0.36269263982208838 -0.26099577889837317 0.37559427650446248 0.7825236868290496;0.96374269965847703 -0.40478430319403158 0.97185813696659096 0.28164241911743998 -0.79324731338729149 0.89336244851154911 -0.61934536265053752 0.7137692307853436 -0.32453510600118579 0.16906913021319681;-0.66930024696752632 0.98966198831184626 0.22246739381516012 -0.76311887504536013 0.15911900958739103 -0.72734967917357329 -0.054747850390349323 -0.63684548265416663 -0.74308935873555382 0.031748846197420071;0.017124020280396276 -0.62262101797205238 -0.26682068485539817 -0.93036149400532142 -0.69458370204739039 -0.06341706100536626 0.23194698504186936 -0.80028353437236788 0.064933124958935079 -0.30074819371795214;0.25103191900814265 0.11336118132724136 -0.69546397653266101 -0.03444225210468646 0.83700839624225609 0.69816598403268915 0.84641999079015784 -0.96277319280831875 0.80386453584448736 -0.66470602475375618;0.59835233119107867 0.18082820560237065 0.94935251385876207 -0.69159412962707123 0.45279921263171358 -0.50426324486475371 -0.66422125316700487 0.59447403847104718 -0.43271733652745042 0.29587316316736939;-0.16064041645206756 -0.009745287172652644 0.41079379097304092 0.84893153987810954 -0.70538552715140046 -0.13686855257130312 0.72820015994185516 -0.48404419663217718 0.058237476620945854 -0.69235731042113824;-0.88726982927260245 -0.076765365128287452 0.53136194675804604 -0.17556067064306738 -0.58151827069070272 0.98694000256574588 -0.45137077121979996 -0.27867044031115634 0.59088808625065703 -0.73114400254983158;0.036106875480278251 -0.68675660081473733 -0.64346478048541222 -0.18770814009579601 -0.015186796636695272 0.85329202283922256 0.14702142803754739 0.61626792623883231 -0.39190600152972849 -0.79372117797640984;-0.72842941674798711 -0.48150549104144647 -0.51919861147971957 -0.69368377055891894 -0.41413422432618213 -0.90995687968163086 -0.7467574277265917 0.13142208719622239 -0.96760065099541759 0.64291102608310591;-0.26295541567886638 0.44098551221831533 0.80635909413339835 0.74590186744864473 0.32469698571767663 0.096281102929082527 0.036376901221018491 0.56359372763252191 0.4907881776825917 -0.78468306661264708;0.3965896374159788 0.98346914158779208 0.46451245485228126 0.74828119295787154 -0.79364896905739679 -0.99290261823078874 -0.83324858235622612 -0.024005997079742079 -0.42457515573970284 -0.27311426608788103;-0.74074779790358369 0.11576895999373409 0.74855006547000558 -0.81181845753349524 0.53728735188306265 0.44784396994649667 -0.26128352214955863 -0.11789130751736396 0.85266506846335122 0.51079859262035976;0.5690190407948591 0.28815072441416795 -0.46306400824980476 -0.33240932072513524 -0.40999054527937923 0.23575676105307058 0.34646530027669808 -0.32322851289023863 -0.98813764039116958 0.73460997279242002;-0.89286066736081682 0.35439012925179242 0.69926692780491473 0.38168954859105048 -0.67319444130681128 -0.25252739734506624 -0.94325151189999323 -0.88790313106088103 -0.050199313804979502 -0.83845530819886327;0.63035368320888285 0.90065919631097258 0.65564327768569908 -0.65759058030739836 -0.48546796508474399 -0.41161406243373777 0.30421540359219079 0.38514620950942707 -0.72203294397494178 0.13602249244888931;0.73114804258050881 -0.26103136494679008 0.75809669366677734 -0.30531674904702666 0.93862722450809744 -0.88996629727003917 0.78442127756871494 -0.96325100621157922 -0.42878114478637319 -0.31056670627505945;-0.60541509709422436 -0.058161616987620637 -0.89075170246234914 -0.26715233778307779 -0.58925048792127011 0.40018005509346788 -0.10063892082522458 -0.15673449776329348 0.076201467413220259 -0.65625166036586036;0.210658182533732 -0.73444803997811181 -0.49522586502480198 -0.31215323142930035 0.80710274716577823 0.78320651452235035 0.73050637549029185 0.76075142220261027 -0.32960652088737002 0.64829942822081232;0.99007627434058731 -0.83229920058446205 0.70759651772270216 0.83296120030753951 -0.67824928289733599 0.4487837422413653 0.49842452022404421 -0.99572138238304764 0.62486952000606533 0.18013430557807894;-0.91234358331478738 0.087061342733273095 0.90362868438255883 -0.65802235163167933 -0.057149394147569026 0.17113042097003178 -0.10369354083133428 0.0014519067517432657 0.047121285000007979 0.63003778322112725;-0.72225217833214772 0.34559748699371462 -0.7357154325220483 -0.6111279252054348 0.87418156122700574 0.90269173978728534 0.21138848801744378 0.50918453880485148 -0.62859634789452268 -0.31790252921698353;-0.55033133963411629 0.68080078622656903 -0.3974324340488965 0.92703068548918166 -0.72826763125969252 -0.27771517118858891 0.39898849077174153 0.34998940734647205 0.75945556506660605 0.80234382177506303;0.16629654591086282 0.19196213367485856 -0.89602833658973358 -0.079291991412159354 0.57176076803386433 -0.81451662459463303 -0.52997721832547062 -0.63623968833994071 -0.88481221468083104 -0.76140412176073125;0.34040311150173441 -0.86585850302866185 0.093270882403029526 0.47081110283534033 0.32545361017807545 -0.025448150456283489 -0.090940442335537358 0.98865918543054621 0.072635635016625177 0.17695590916329346;0.44352770510019923 0.47638857100240811 -0.12560008118671323 -0.82447545160154601 0.46035485922337671 -0.66698777405780607 -0.90229181133808689 0.78006213511806122 0.26174029573559821 0.28913287208632388;0.0075481201652885946 -0.68974443822681275 -0.60361934439188691 -0.5650798805439553 -0.64656374165173336 -0.48529496733637217 0.22244790085245689 0.39156964563456864 0.7595881924796295 -0.87705245578790192;0.28740133103349713 -0.82141937442277635 -0.58916345279393345 0.14256007917561611 -0.2643852580823326 -0.99421147902064277 -0.9638884099136823 -0.7973115801872509 0.50688458362395439 0.6226105037785552;-0.92682396772754194 -0.89712024563928716 -0.81761713507167211 -0.35123096424086203 0.41488218073534733 0.52618566448382609 0.24698993721699083 0.74129795200737858 -0.25487183188043971 0.91273937122216675;-0.61145100120369755 -0.83134695099589329 -0.98891893140763187 0.91356807293397047 -0.17533656687205157 0.52814626699093492 -0.61120819436791674 0.81305610783816917 0.69015674905580859 0.51093623441398295;0.49794445746643096 -0.57173178750683373 -0.62376084548067878 0.18115666195531793 -0.50825029740251848 -0.96612310408742685 0.013603658863000776 0.81015207201223038 -0.012930778633109759 -0.016145642988865415;-0.38256895492856741 -0.22283864958971508 0.30136142002226168 -0.75953453614077593 0.76360599414033259 -0.74999671754657682 -0.038474418751822698 0.13385982135236779 -0.73442522509015096 0.18688489255235513;0.49586070823492406 -0.42032900778396948 0.19195020502797069 -0.44383099263890863 0.38838062653635097 -0.83850119552678615 0.42116703894786606 -0.18345666732529906 -0.078427576671477886 -0.2550520826430514;0.70155382574216529 -0.69343522488036446 0.88300946181601225 -0.7042082737577543 0.36002644884601792 -0.8434833632275206 0.3817490078226099 -0.7971204186460864 -0.76723392065895446 -0.7031752771271268;-0.79588620144803002 0.26167181392168271 0.27835605919231465 0.43462748290391801 -0.93409715834786178 0.18295071401646359 0.45240100520009829 0.089316754048200692 -0.42100492595317696 -0.41158090410115139;0.19462341588643178 -0.76665273814594337 -0.10160755580060449 0.51031664643278307 0.29165293542608228 -0.0072433066783477926 -0.11742859783948613 -0.12049734942350807 -0.19050981828112101 0.27036815802644326;0.44275545812889872 0.46054747680325819 -0.24728344235610433 0.69168245044768606 -0.88408437281011698 -0.012464627908285533 -0.33994674888802129 0.26193502485744408 -0.8553149763751785 -0.095717888103587154;0.13436242908996288 0.77970737492580378 -0.97958043846540266 -0.67549418885388746 0.47451077613474768 0.29414947673046948 0.091057973546530016 -0.5704602696525265 -0.22096683425985128 0.73107399381023408;-0.53054008321655233 -0.11393066490161269 -0.56436937498513906 -0.14518993993215756 0.96613276720797914 0.67922000973462771 0.71279059927634691 0.27905383202696188 0.52535277352753751 0.38360884558333386;0.81813552912116483 -0.17624021414712598 -0.11121139913292334 0.60430337104926846 0.40072580417703618 -0.96530202858081959 0.82705789076875547 0.93315167755550998 0.86448088530819855 0.19932559197132468;0.89484069690565848 -0.16900410718230244 -0.31785732854902121 -0.58155297649090554 0.48758021624731346 0.68452386977540114 0.24902843609283642 0.39378639598364656 0.8724232973045084 -0.22152681016474043;0.03292294315972346 0.75069403774197141 -0.71872892550488199 0.31155365472222246 0.15931162766316009 0.54350084009621946 0.034156315894772082 0.76784301312023495 -0.37936721095744919 -0.054455761913589786;0.410764254267036 0.056851557211650812 -0.82024402060253743 -0.41691797113483953 0.89537127889222978 -0.42135240390134343 0.074683598415737726 0.85142136470906304 0.29253922174732283 -0.42410022524030916;0.59306657448212186 -0.73283019882877709 -0.98843366929559484 0.37530994096155407 -0.81207440079912541 0.40015715172643307 -0.67870343100278674 0.88624932235264475 0.83292100750658016 0.94027463378727549;-0.60030021097039232 -0.57077103391865391 0.59344458786856769 -0.38021722522720741 0.82905448797036518 0.82537477512770407 -0.7224577538882071 0.035372514407019433 0.29182083877978177 -0.83818373487204034;-0.78321361149397906 -0.66096768728831068 -0.41354036903283048 0.88336728724036706 -0.019064661418232702 0.8889431558476687 0.1900057412942166 -0.64212560037162003 -0.6318112852509693 -0.14435890368911175;0.23551364614501752 -0.28333160700640625 0.42335973579880787 -0.51780679109831107 -0.33368620386643355 -0.4643826017130292 0.21387672910838229 0.64233387722936452 0.69833437512464747 -0.83860219022920335;-0.95242001645576835 -0.27162404101864246 -0.11297258467990211 0.39417301370585178 0.71387321892271749 -0.68986353918719234 0.28707027585672579 -0.90192565602751162 0.95420452720312743 0.70278561464898859;-0.92263195738045112 0.10844429838775796 -0.4078603345684188 -0.71838372039436782 -0.9451044760574363 -0.25788757553753927 -0.87194283543574358 -0.74182042537152182 -0.34877020601657199 0.76632822293497971;-0.7664057871483857 -0.72977441993448522 -0.47627125284846222 -0.10891149744245454 -0.56836203677202357 -0.55077244373061152 -0.86891741124749944 0.86110989003239879 -0.48870443230123994 -0.54739904670826234;0.6357858101455347 0.42212573656857083 -0.4481042492205573 0.2921613509175327 -0.03144619546606825 -0.94673445556151226 0.20731671116957073 -0.43835192123685485 0.13652541287750125 -0.044039990032763439;-0.2481219311365411 -0.28674479115102475 -0.84961339893996757 -0.82699673784144734 0.79488879616703556 -0.63631230721428178 -0.18337001494236299 0.88518573490705599 0.46251916341678639 0.27430717335333776;-0.53851372288462784 0.2899533446410712 0.58231611300230313 0.020738199268987137 0.44598221008008709 -0.51001040731321035 -0.12065537716967879 0.36803243054844748 0.25977223976873387 -0.18579607387954825;-0.26425288833060612 -0.14906334204151439 -0.39977134862052477 -0.49997437931088951 0.74014010604720648 0.99405522055052387 -0.83906853718324681 0.34848856123763877 -0.942609034657786 -0.81474332181013254;-0.64987028157448035 0.51635382995252344 -0.89805240101486528 -0.24866812612475026 -0.1852437767803575 0.30916137049353715 -0.18602778771279585 -0.24677864165524804 -0.4086681895394601 0.40085459538561058;0.54865672312667635 -0.50943679408230147 -0.32750021507879268 0.17942470695087684 -0.80948716287813094 -0.76110280592383173 -0.77019982034695478 0.7335372117033252 -0.75617989408283326 0.56622895927542138;-0.3366156291393767 -0.6204046669314085 0.72254975084234774 0.98806231876201278 -0.93947528596804453 0.64825861729599099 0.99278683192373451 0.11774354058705767 -0.71118526721032127 0.36821016653262045;-0.37068369193851136 -0.69157552114472365 -0.69309177250009257 -0.9183374549344463 0.028013981041844618 0.46026580905908132 0.40836119696664303 -0.39238565869292735 0.46233335675268256 0.39766411951241371;0.44691429617768458 0.97837265329423773 -0.379485012882602 -0.46705366345111521 0.0019867898308720518 0.42730792608401014 -0.069757079548485854 0.69804710352317823 -0.0780998568288961 -0.33686897837238405;0.16904095712024655 0.94354521095818822 0.061407729433887323 -0.39699527553849717 0.57352853672595694 0.1151779499150896 -0.75758381197268521 0.56791305168067507 0.067314605894358726 0.34759322842730128;0.55328529873405186 0.83808540866867465 0.079435807942629319 -0.58779129787814666 0.63096041935987168 -0.23787880625423061 0.50079632659089501 0.94013863519167318 -0.42249273480051702 0.6415463163020122;-0.280390119149526 -0.091207889685397336 0.58913613979063895 0.26711434327891076 0.45635047037387083 -0.30561594682733811 0.92793150137188518 0.95320865352405748 0.67608559346150265 0.75986398437982716;-0.62851121042104341 -0.59106915882329958 -0.87722070214024539 0.42982692534530176 0.54003578585626255 -0.82700357304043681 0.73277324996661819 0.20479868485006114 -0.68392769679958154 0.56050353940343023;0.14924322804587131 -0.25305466962730927 0.68308536758578497 0.069383041925838371 -0.33256210801087971 -0.57488707582901644 0.75999245524263181 -0.96679842328518617 -0.95001204330665578 -0.062861723516742699;-0.03403509940064417 0.48891929130890183 0.86035348546031998 -0.84958526716368543 0.17416734766069972 -0.82151374422711398 -0.6512735617423504 -0.48676766559181517 0.19895585813491981 0.57412957276842214;-0.15688307644325949 0.796515557160549 0.51716551903213803 -0.69295542627908735 0.61120300668737104 0.51782863072687035 -0.42463672735261981 -0.37826832418016226 0.29755396373771509 -0.44818178646710549;-0.36156763153985322 0.7110661036686976 -0.76254925086307179 0.36392135386068292 -0.67153514276438664 -0.85937112600195753 0.7022271779097734 -0.54280026965532069 -0.019141720530122124 -0.85827369391905606;0.93908696540356773 0.94916526672051793 -0.743809949254157 -0.32898895450332055 0.1879039240572207 0.16886921835925164 -0.078265858467462229 0.44257402491509029 0.98022560147266435 0.96145802819205284;-0.48234573147629733 -0.68952591792705131 -0.3991051239801694 0.68334319814009792 0.89110340762642959 -0.43375728157431848 0.99239946339921881 0.29650336863651905 0.023422306545297235 -0.074521921541824312;0.13536086695953131 -0.75391169190726848 -0.24718529993640184 0.89334113076246613 -0.12738908245805572 0.045645600545865625 -0.43439780881061035 0.85790359915428449 -0.23216800067959981 -0.69882718746849082;-0.29487104635528766 -0.60678634689206468 0.31132233964700884 0.50375137206882259 -0.47675467026654916 0.94720564136915031 -0.28356308118074797 0.08770917613593425 0.092152519072533953 -0.25626519189444225;-0.37572107544971833 -0.48572310501145255 0.69159578218305751 -0.94364054554199361 0.868177427011247 0.36772511054891549 0.47974160380299624 -0.11455702741756214 -0.85035471414656372 -0.19017186683772164;-0.97582854887609771 0.45339714060589681 0.55510965973136484 0.48400600943004596 -0.64219087417391396 -0.19592308004292838 0.093326023131368716 0.27977750986153999 0.66626151193634597 0.11728487208297964;0.3339314946904734 -0.54393121026669744 0.39711922605121158 -0.32406898617949703 0.98115295841546624 -0.78956970359453815 0.14294898669975759 -0.56050039821434305 -0.49338901624956816 0.58373589419519223;0.77085624475535264 0.18682488934030633 -0.04429244751746917 0.59902354601513885 0.44454613212672744 -0.16827030967495366 -0.84869239108641215 -0.8986384456640889 -0.65528526754597216 -0.46127219463873081;-0.15903347148837085 -0.64262589039059681 -0.21526483409368993 -0.66162395995379619 0.059097828018670015 0.095220784500727351 -0.83248814076120037 -0.57923917455710938 -0.057320779544696089 -0.27526727857092387;0.71683342890063428 0.14906472288609346 0.097367504728234508 0.27228158189719853 -0.43727446881277754 -0.53475036177558277 -0.60078240556374241 0.72735296014578554 -0.53314304309413219 -0.75526637731801338;0.89356872774194029 -0.085354230319438631 0.19097414391641901 -0.71075019190825328 -0.74670147337848336 -0.98811501081066899 0.79302804032479279 -0.77555261061838865 -0.38866361785803488 0.038529823778541437;-0.24532894636955282 0.75610156875358936 -0.87910419533082362 0.63562104695544419 -0.73316954191198602 0.082936241889839488 0.34632666181993638 0.92908158007467501 -0.0043247926126807916 0.5922183023594827;-0.59405344051105324 -0.9819491838005322 0.83792829593068296 -0.6402439388739688 0.49067857804420362 0.75753989622759765 0.21230271732725028 -0.19270455051036353 0.6833395500982602 0.80266164129044915;-0.64061388690126109 -0.26006847714202114 -0.035080130500873899 -0.63846029376569946 -0.31534345289320109 -0.24250759141515366 -0.89526987040025252 -0.63497274577256591 0.64807733392630318 -0.71768214360633531;-0.38805352192705561 -0.67055230481628936 -0.8512823953124703 -0.69229230616390036 -0.25502297222707682 0.65183343172118335 0.015426325710344876 0.1263988414255697 -0.88459336369089503 -0.54478461511235077;0.69865181904349516 -0.84566839048237064 -0.31401356790587243 -0.12924224981724486 -0.18019268060662338 -0.69231399281006967 -0.39486173292108978 -0.17480917950604011 -0.70999962367491809 -0.38337742267587449;0.053416029996927829 0.79171876977658839 0.079347444352140528 0.75343369743446531 0.66674571210957645 0.20271664142399151 -0.51618845059142637 0.57651172043119658 -0.48350444231429635 0.011071184596266659;0.65360437145815431 -0.14616341081650824 0.21121558358536427 0.001311589014124107 0.23714373978830661 0.67311017117325167 0.54893420897184819 -0.84312059320818822 0.77694054300673698 -0.55730639585263098;-0.7807765010709049 0.085039263766674575 0.55098053180174056 0.13244790062760473 -0.65445717521236857 -0.35464725596336283 0.78483494080375071 -0.94176397396055089 -0.4987670533034877 -0.24641940030786877;0.23231524288332883 -0.8152843426609051 0.32278494394520252 -0.81952233361797433 -0.81832587250127842 -0.18713980332405894 -0.89074510788067518 0.68144433633763046 -0.25347661363353491 -0.23752619447984832;0.13353919475278983 0.18063329055114688 0.31073096788333404 -0.11113398933146811 -0.50974742853227872 -0.17158978506520445 0.11254634821911384 -0.7576666171208658 -0.38203616929955786 0.47057880586447459;-0.47508028580257283 -0.18522342924971094 0.15432867467927208 0.4059878798947108 -0.81878488486676348 0.15823842869992785 -0.69458775964030339 0.90323679258225875 -0.14708980164419849 0.62092445148016229;-0.988449263456877 0.21706686483725948 -0.42597822244400735 0.95650625723105209 -0.64353502142725771 -0.73984301085056448 0.97871042762945804 0.22480824667328878 -0.74252120356068418 0.50484146860633139;-0.4238629621202929 -0.91227059805186783 0.55377413946239995 -0.28146339744070831 -0.6321102773240832 -0.79053599699037469 0.053338723247687583 -0.47267882295723362 0.5546056378470795 -0.59465291459276426;0.64020200493803603 -0.90113077829928334 0.043846911887194577 -0.76505584222791589 -0.40547227347766929 -0.7114357686715117 0.075544660641240838 0.39319096773097312 -0.5813048222613505 -0.89174792313310358;0.78561471028326424 -0.085053838329166215 -0.056265815979993264 -0.47700841663497417 0.25405202837042895 -0.12212816980059636 0.42250788652279897 0.052329175280880609 0.57787814005455129 0.93919419151428996;0.98926192408190727 0.63149566337731111 -0.75041179177356754 0.98817141185371349 0.52627228150140526 -0.057130082159425583 0.63594686885058804 0.25852809672756133 0.70378323454437097 -0.97608959919487825;-0.97680970837173686 0.39105102525836594 0.68004625986758194 0.66910079685719115 0.027033513713287254 0.37407615231568042 0.74817619726624818 0.24245843362745689 -0.986149881781476 0.025306489034913247;0.46411271503575269 0.098391203016056777 -0.68713485137097341 0.49964482486545675 0.36829790608903928 -0.28108434223617157 0.24298890037833965 0.43941203372823262 0.64463336003449234 -0.7088901315408781;-0.82591958034092305 -0.59456365324911897 0.5295808582410152 0.52575600959713009 -0.38200253669948769 -0.37792877486166254 -0.97499095552474846 -0.90908949567416308 -0.4289679379024447 0.075845671056271602;0.26764539735019671 0.27857261816182266 -0.90329377955914647 0.94781979423956075 -0.4161170571276267 -0.91399514370859802 -0.55263214377811065 0.60848517964643078 -0.77883031447115869 0.78720069681678317;0.60844295497587675 -0.90311445877941732 0.52547372921531177 0.76734215829401153 -0.2329746151836718 0.8943749525834942 -0.89262006685258921 -0.21124361855928706 -0.16187034620928595 -0.093599142617379547;0.65968680115538469 0.43952397054227926 -0.29917313653621225 0.28109902119937208 -0.3837838438255925 -0.84936944245265977 0.03045757006481083 -0.66836167862671803 -0.67570480207341499 -0.65911530881106939;0.13487762708733361 -0.1495260141918594 -0.080501427966976527 0.80834716509422599 -0.17466803655213831 0.89774195498108422 0.78437129861236277 0.79414482819257592 -0.88841172058153495 -0.24987879309183472;-0.47698766885410165 0.025183428261335312 -0.90143228176255197 0.61754563450937783 -0.097767806348984604 -0.53261797838407521 0.16016625463491116 0.78364038342694242 0.53087039425121429 -0.46163903962936476;0.56719888966416709 0.82389049965111616 -0.41078724172184189 0.21194450720529426 -0.53938596935528738 -0.82874800967822093 0.2545869182156742 0.68711622520730342 0.71803785832554379 0.96617872376690239;-0.65864478433730955 0.4956493092948055 0.48842712292452611 0.70899430984955025 0.83340680080467699 0.45803665807509769 -0.71065705647774657 0.19249127538600616 0.58287124125204148 0.79511338131811149;-0.4502527162385655 0.91984914519573169 0.84998217683874955 -0.68641093919682705 0.64111119475046752 0.50617016845143536 0.49520379766298389 -0.1631886289953339 -0.40516312748693212 0.26170131938422891;-0.98728665931859227 0.50644887434080033 0.50341928558475901 -0.35576637396243999 0.90274478676492409 0.78997269017037575 -0.43858824497576676 0.11490936387677192 0.72721539428671722 -0.37540632169700877;-0.20640118079998376 -0.11919160220828467 -0.70688991846494253 0.015048271736380285 0.65629325290602281 0.20396193738191989 0.73386271103317879 0.086867881734699864 0.46010829056938723 0.11269089524069524;-0.94339471034374545 -0.088715020840111278 -0.30607134162055433 -0.21403900226257372 -0.52666628185833142 -0.036041392194504793 0.60345442351459511 0.43655562886250304 -0.87691570803981689 0.54790367448273058;0.70734141902848213 0.021096430654066179 0.78651517310732499 -0.43695048533197706 0.20566094098027687 -0.35857801014949758 -0.022164954136697383 -0.25306798064645747 0.33565281785543283 -0.83188669204855492;-0.58753358867872907 -0.53122999549998307 -0.71597231009992135 0.77461663720572171 0.081177041503383299 -0.073267069143164484 0.94523054431801368 -0.51866649467220638 -0.85437350533263401 0.45360940810839856;0.71794175979739505 -0.11595330029995654 0.70110002008589867 -0.38569487476383207 0.55730366454997193 -0.08514461593258249 0.055367748135297414 0.33686796160331739 -0.80524700128722271 -0.096431992272566658;-0.88435796769853947 -0.70867404349217544 -0.046981339609127114 0.65160860518089225 0.7535966863996052 0.18065336242162311 -0.56328554795020891 -0.92552837792560838 0.03398023374459562 -0.70950611456648249;-0.55154498951477193 0.048859225714825191 0.84985216690129051 -0.63172761191448201 -0.26262851202435517 0.46820930914589598 -0.60591331473035748 -0.22804946238679452 0.46489604249609884 -0.82197243521964769;-0.90668543591636641 -0.18674872981781768 0.080669440574557827 0.69894352129451542 0.63104474892480067 0.99941145721977942 -0.9631663277432716 0.56326555075420803 -0.43197086544869695 0.78800794619467474;0.49697261470710447 -0.88137325208048922 0.058008544685777194 -0.40233189557905819 0.41795764494128229 0.65303954384028029 -0.31298436317953338 -0.31343375812245761 0.96535915913942594 -0.095994092133121073;0.39290251242123392 -0.26645391660868706 0.68478364817764059 -0.93354756057972577 0.39049763905667434 -0.44201737079924713 0.6686135278203057 0.13116504059722761 0.15591707965289919 0.77291781321828978;0.83163731195883706 -0.79381357482309067 -0.63719395149704205 -0.25147731305049825 -0.52669889740745357 0.66041060747010571 -0.45229996096326325 -0.36366943665532164 0.87083025149862636 -0.1925077708616863;0.81518800738150932 0.21712598649302231 -0.44566644001994227 -0.22798760473667853 -0.72702197254098266 0.055853475649036297 0.3151223305699617 0.98543794125304984 -0.52232355502688044 0.10427807225699631;0.61017560309423458 -0.55291499465428784 -0.68616337776668002 0.71213818397340645 -0.40854617854743031 -0.98276505662127445 -0.65789928941065967 -0.94432028207024044 0.69078155075716208 -0.82385717914489454;0.99740104844308308 0.16268634826800346 0.56703332676710383 0.84391176745585372 -0.74646906826205883 0.51265120109608286 -0.41037863827821269 -0.45449774599539106 -0.095898233461681248 0.55214201368489924;0.59880192193447668 -0.33545031591435154 0.22661237771091153 -0.48242063178911404 -0.22807469445534082 0.6995906193140814 -0.25775568591325471 0.0057703413967113044 -0.8729252416433092 -0.74095895191452332;-0.35114701991391806 0.48897875045524686 0.25962734822228778 0.15344214360966918 0.92910679247198691 -0.54780844108122528 0.29925156492156285 -0.25945775141596628 -0.84499783560093555 -0.76779604251648392;-0.94575583437677646 0.558017897425934 0.46132520948390693 -0.34708336393655653 -0.54482818112229037 -0.10059323917058187 0.13451754801279389 -0.55453085506011757 0.57560171193125353 0.13274249090824328;0.46243092512955725 -0.75868023484837799 -0.7610888527102615 -0.048162971313948068 -0.43449091866621053 0.77302902690968245 0.02321736233417708 -0.2266876415714221 -0.7860396944667386 0.93459887747081227;-0.05262964720904454 -0.13770718062245865 0.94545793802114753 0.48251409589813715 0.44900156612872966 -0.8112826643312484 -0.87524626034696007 0.6059110011771579 0.97899975887070834 -0.15350663226606165;-0.21467084202257922 -0.70231800844095882 -0.74879951254964305 0.34346600733457194 -0.70888253304421267 -0.0076614794207335189 0.55425371347637309 0.56768359906941479 -0.003113459679882003 -0.0057450506790277548;0.71565400667581869 -0.7950662402307811 0.80308988041965457 -0.86875899115451705 0.68741582542387469 -0.54122302697185043 -0.93724749699774279 0.30859393419090997 0.47991823827840269 0.57006163791069309;-0.88020742570576838 0.020255398494049261 -0.84163041660040505 0.79738971722369345 0.53004583969152108 -0.77524389527353776 0.36136284671968205 -0.28456314963229684 -0.29298961704807597 0.17039428500944898;-0.22915863397649636 -0.62484524985338041 0.74569844566934529 0.44085860550711986 0.61985080133640202 -0.099249274686725689 0.78511154399051664 -0.32138580898346458 -0.85260375397024857 -0.062598884901060678;-0.71326683313988926 0.446171411330402 0.20836100842566288 -0.11654307237947845 0.79783251497351571 -0.9339280532938754 -0.25720215286356451 -0.89368821987380809 0.64757842166896107 -0.052230290482054534;-0.90573549903740047 -0.91980611902394416 0.69290237789979903 -0.65493761029691766 0.77151199232307688 -0.52998360707469383 0.24935855431430271 0.72458618794718166 -0.51455981258284567 -0.32021587877416596;0.39492321727858271 -0.64288020955649683 0.42963507930791861 -0.16492292858093796 -0.96662116614791449 -0.018453109050506223 0.38481041833882967 -0.85053090430563105 -0.88517820814729442 0.25472414338860161;0.82536157194866311 0.68898978019790713 0.91818989962430653 -0.99707894083584492 0.11368194557219308 -0.31178400373354498 0.57099148679344347 0.3712107981369106 -0.87928803152943735 -0.742072967979447;-0.23262022694818443 0.65370686542334411 -0.61126341147645358 0.091277778783979566 0.55609527571315875 0.18092381849731398 0.26299558846877885 0.14722563166580868 0.41646540100019525 0.11578080132305146;-0.51266575821940019 -0.5845429396086147 -0.84755664219797411 0.12990618953726665 -0.84092113233447618 -0.53496167303040865 0.37915366918175991 -0.1393474087869036 -0.14673891223670393 0.83077243204038798;0.80842833262249847 -0.024938719520339395 -0.82728443464714441 -0.86310009913900021 -0.5142608839089664 0.77561848490143459 0.60130733833470618 -0.026131806006763559 0.39325339894182482 -0.32420703369136145;0.4025124693150452 0.073098242335492378 0.92109914414501493 -0.22495746145990123 -0.089797918231330903 0.13415438200154875 -0.24794936440729282 0.35625875110888733 0.67969749273196678 -0.34536714361773163;0.7882027699890336 -0.60296734251191142 0.92843581212184045 0.012097235186126393 -0.070144965287888439 0.65955992620732273 -0.90245416882978513 -0.59301999878826706 -0.24506391647152354 0.15190427585582286;0.89561082387177637 0.82114121880719626 0.86168647159538969 0.73138427433997089 0.77564440307825566 -0.66157052512464465 -0.79062980069472055 -0.2636465190931771 0.067444475182103308 0.37754256361004679;0.87144980484725165 -0.43429048615662902 0.37419578236115075 0.49641964783193604 -0.46184603469116026 -0.37138925616445434 0.081900193713460204 0.51861219628002009 0.49279693081904075 0.25126701512554556;0.99102419176471546 0.89455401541355439 -0.72094882586498477 0.49024357758601717 -0.74922856620105505 0.15071455895520061 0.69538863846395638 -0.78765585969474006 -0.2012907355333815 0.86012328611025912;-0.20228705540773026 0.35843259016079582 0.29417815582795948 0.69064932555400194 -0.52567009351926031 -0.75406728198381379 0.066786367155110646 0.27834902601650457 0.53341293817755986 -0.33308694182986243;0.31811189227714481 0.23258612530699002 -0.18319382214953497 -0.52318649987585131 -0.48438078203629181 0.33442847049455143 0.81491167057613101 0.51183049516534851 -0.066148489903336299 -0.16430956081284781;0.64468519459991025 0.093839441012151331 0.40688497771079879 -0.32456248313172387 -0.83908886269554839 -0.6372267633106018 -0.81756260810816905 0.29202732064943016 0.76559599480265794 -0.32407393133968415;0.24627428722993985 0.55023899587803859 -0.55026835558314424 0.92403300289329193 0.34006617555272906 -0.64241655354699789 0.72804759227702476 0.33686307217080846 -0.44847071485497891 -0.52264843865968236;0.39766491676460231 -0.52726922549415611 0.99124959356273268 -0.70745212544801195 0.04865259406157265 0.61685827135290439 0.71216877656681943 0.18478507813958858 0.42434380638923841 -0.20231978249993746;-0.023224250305250216 -0.75917722887509287 -0.794285525380796 -0.78880909489675255 0.3658148446137055 -0.88409704138426659 0.7644756196998137 0.4785674669063732 -0.73580552811726807 0.90257127085827893;0.019996929272212128 -0.29453863472901598 0.63287041211380202 0.81347794742682622 -0.016049699966100645 0.16857026331643243 -0.84728643657530645 -0.071476070167868722 -0.30964353978167408 -0.6101843523449757;0.55494513078329544 -0.78911997459530969 0.37235184044528735 -0.76263257455798417 -0.43528062846220666 0.40571960509691873 -0.31667134935557184 -0.71248574361102124 0.041664087581486299 0.21246764380006705;-0.91482037915279801 -0.2434339126510961 -0.21155125426095939 0.48519473533375301 0.050759590248795963 0.80884692709459338 -0.54185922726732183 -0.36064062060838453 -0.33512277125666484 -0.68523606247658386;0.8007240825465457 0.9529973212623738 0.78185605837329963 0.44736348454254615 0.84658164622486975 -0.4211640206281495 0.68811557249852517 0.69457482494346456 0.38819444114646995 -0.48814808089795625;0.45936782498520234 0.22901099972402503 -0.2333644693906094 -0.75213154104555258 0.50353223388436641 0.71778180909678069 -0.73279379899493047 0.31430007603825438 0.71432045240999564 0.59652793590690867;0.23202377181615153 0.14998214440344584 -0.10727526647571876 0.96761883466865883 -0.0070122016987695518 -0.18087497024775134 0.76058430533293309 -0.22144740081082531 0.82535816428616304 -0.53299460098493356;0.50629354149072436 -0.097736170707464001 0.74455524645370019 -0.58032292577286904 0.7820385388438309 0.99384476301980684 -0.61253375769213769 0.83237687809564642 0.73792903415783462 -0.26199430514782801;-0.43031459752446777 -0.1120247020024458 0.7690784611329623 -0.50021737962485713 0.83206763356495861 0.23157998605670435 0.69151963326800203 0.056331000884377681 0.53955846660431706 -0.36339149302668783;-0.58760678335887995 -0.1827801448355677 -0.58315722881407417 -0.026731120321494602 -0.090350864587964499 0.91841103304978078 -0.58584307899208588 -0.68187965007814677 0.49217370469949229 0.7685912065515732;0.30488513517770321 0.79290035981558415 0.59100611925652691 -0.4143091511310637 -0.34587692517652363 -0.92147240234544592 0.34190736713415193 0.38620695697122392 0.40976183278364076 -0.94028959253120825;0.85475080844228668 -0.16667987155758021 0.3823577145355605 0.43164210569644035 -0.32722469497755885 -0.63722695407946872 -0.56411021563450048 0.56487885340708444 0.19751262948258413 0.25964257547788261;0.60914635321397048 0.35532370870026597 0.23959049864930995 0.146276792768993 -0.48552392566075497 -0.77483181766605647 -0.86621196397154265 0.69169286883157732 0.36077664645019342 -0.53090196019105507;-0.29734744255982964 -0.92178998007515323 -0.19085220040836046 0.42137292331402293 -0.52961939731464469 -0.62514882989014253 -0.14004572749226343 -0.086503595117423643 -0.39961470529469489 0.42361524490540592;-0.46050878600829326 -0.64135854724266994 -0.70634533700245272 -0.79363039979215266 -0.27716865548365976 0.75302381962446385 -0.39454059546195958 -0.81968448067201682 0.08133071156436722 -0.84440456893866389;0.48412807608742164 -0.8050708542865157 -0.90247719735717669 -0.36673697834549634 -0.43445829643804007 0.2274115739106837 0.16744995511807717 -0.72865777809039278 0.84787989797648045 0.93543291765016712;0.44388374470784614 -0.7500404609811282 -0.50771562162038741 0.85478571607621323 0.96862278417037739 0.51585546828363393 -0.50739302091739491 0.14201485180971674 0.40919439215466691 -0.19211835509390857;0.71003536017701441 -0.61788596666543327 -0.6509957350575899 0.78664826133641796 -0.018475183823172821 0.088593909459263959 0.47779663368602832 0.24545864701373127 0.53805471021169093 0.65530106991351644;0.83467139867633422 -0.066999803713923389 -0.47840833666466948 0.1980434250210075 0.38008781812172326 -0.60510487934488966 -0.55175254801913898 0.3926083326161649 0.15266885650136261 -0.42883929517247815;-0.46044078552758377 -0.64969717604611765 0.91106097656547025 -0.0049955693937534639 -0.68946210525840856 0.52094303545551657 -0.9970867812229729 -0.16867953152954765 0.92639434187075331 -0.96925388982812799;0.37749461447170507 0.042776197603509342 0.2152038609784486 0.64805841084116111 -0.11286428949439692 -0.65227586539457272 -0.98983585630468507 -0.72221615862619726 -0.93422645118675862 0.15327092621137184;0.23653297456861833 0.34867269286232755 0.21677505265753413 0.63134978656741569 -0.67657200701804698 0.72005988158404033 0.84881688253196341 -0.37739635204658462 0.057719840502320131 -0.88287069418175446;-0.8548454692387556 0.7337639442259094 -0.49901868053589127 -0.7178079279753713 -0.19500462053412321 0.6632915285628691 -0.9194125840745454 0.42424932363043277 -0.46262127168548572 0.21152959062888246;-0.61981921235397175 0.50992128790094304 0.56715011737955168 0.20614839919364367 0.19406192504367178 0.49769622649865736 0.073828124643426307 -0.5733568654599106 -0.61166165606593725 0.23564815028914424;-0.32745616783707049 0.96380807770886556 -0.97711946676316896 0.5767867529428391 0.68820724051937909 0.44352946387257514 -0.61603267188044375 0.46608440429934395 -0.65179822026080536 0.5641762790899254;-0.37664472359198725 -0.56037916755735251 -0.75330647029104292 0.49448022154418103 0.81691359536819352 0.048415194327110875 -0.67040015632832239 -0.22153830694986329 -0.63068927526929741 0.090682089136295344;-0.16057368033153091 -0.65352523691971176 0.2872411453136387 -0.97567112911621601 -0.70834392782268407 0.82122099717008412 0.39245958870639069 -0.9541725437785562 -0.40708776245837963 -0.048334627491485829;-0.82007731181231036 0.83700604682844093 0.80030328322126143 -0.61579631802844659 0.12227238502059777 -0.43674187304680667 0.33829617413435109 0.30257028960464111 -0.24182629559382582 -0.33144510389512544;0.12047104234218194 0.78991300392365094 -0.22848378657708693 -0.23153852377092346 -0.22206121837495507 -0.77769809335357931 0.568398603384346 0.26934249937909299 0.26920782224233847 -0.43492679788334715;0.33468697497688754 -0.24507399111397077 0.53399984920212618 -0.12248734859574439 -0.39497485009652622 -0.29035756231862231 0.045064729631351871 0.43589691097491345 -0.23963431014241868 0.69969524038815034;-0.76401253573215322 -0.72727452243365298 0.77321349872160272 0.77947462047068272 0.49799646673257386 -0.76084305333156521 0.59386569166814751 0.60255727777452983 -0.070077154211598824 -0.57552820189111775;-0.36840938324539402 -0.7100100271989257 -0.84651353042963384 0.85992193628848301 0.94819435791357431 0.2121240828829013 0.15542258623063446 0.36012345228567977 0.50860982282654832 -0.73300926905348995;0.95800733905778845 -0.98052641672304797 -0.29353011961461628 0.20733446232529143 -0.2870380712193652 -0.28020860169837625 0.031254410563464015 -0.44563681812335137 -0.48867503751818336 0.12434065849184969;0.77097660171029936 0.60820800008144627 0.92625594676612744 0.45443763545036125 0.010748849574311976 0.15032365988406277 -0.22118561141896667 0.30892994349096736 0.36355136765283086 0.37548545195901578;-0.94809011944144184 0.63760255578083191 0.11829328369360474 0.78070095518388705 0.5920389850949761 0.24116588685374021 0.1622753328632934 0.53031156668620527 -0.91432653417778131 -0.26914569370296559;0.72380523639744365 0.82771387689353582 0.69817844626316738 -0.27555854521012668 0.37436507306392841 0.43952164799496996 -0.015400235246362703 -0.41503980496092485 -0.092328840357160047 0.37292561821334502;-0.50838158964585722 -0.3037722127949013 0.70274257818461461 -0.59161324557105388 -0.47351517575449131 0.11434993214528391 0.11816579882866078 0.63679749601690372 0.59408739525818921 -0.30818807627734129;-0.13250461519762632 -0.085685739409664091 0.44726090297111099 0.060317780371385528 0.25122269171275313 -0.10217210391194644 0.70664782613140154 -0.84327532527928617 0.13008316587869373 0.65549360131281276;-0.72380429281110026 0.28891602194427213 0.88907188800242898 0.8488447419117624 -0.42752532667752557 -0.3070859266631995 0.38364309848893646 0.81607856528172984 0.21570775426292446 0.32038679470687986;-0.56550344070539349 0.34277004457740512 0.39205082953469145 -0.58165283359973885 -0.73597875582657157 -0.87579184326718784 -0.90514103660682588 0.99341757728179891 0.50609705615358092 -0.28499402804881624;0.5484353739647746 0.94805867979073377 -0.86353803800219187 0.96202718016951838 0.51843787034486355 -0.11311665808988426 0.79948274951854614 -0.16176219319913734 0.34694685562991612 -0.83714764604737313;-0.82345517815880775 0.22851197142332094 -0.41963874806172058 -0.16805744403824271 0.28147312618674375 -0.55664529316649969 -0.49119062877328262 -0.46888226249887544 0.46251264456539298 0.19957806605543446;-0.19974272785382013 0.850861548723441 -0.60423529835497103 -0.46238281778445961 0.032494726876118124 0.44771766425852616 0.1088983944271964 -0.47887203741903678 -0.27678680135652012 0.79428915273629452;0.17877052093455917 0.85056330219375786 -0.68291000515094746 0.45933848678656508 0.39154867841012475 0.48366941707414862 0.22296635198606621 -0.31956048046564689 0.78671021165162736 0.90315174063104309;-0.60476452481356324 0.99336604919411653 -0.40620256188679005 0.067016987285047527 -0.11541937006440592 -0.47814444886958585 0.63786792804407755 0.57565040993548433 0.94082291470177637 -0.14029889567129755;0.39256856798858758 -0.45989519473213453 -0.48379289987598062 -0.2484804255149225 -0.64715407347140519 -0.98991313667042102 0.098531626237991415 0.27176149912869546 -0.9761755166194932 0.84196995375387873;0.18440964668036838 0.88358412676739051 -0.56655886928618271 -0.237013177032704 0.90627477481280727 0.57167736048925388 -0.94619812642352197 0.49387834077982817 0.090460871194798689 0.12321232164149379;-0.073704108009428088 -0.77186086731354575 0.054356801286289259 -0.56124896799326085 -0.95639653601187935 0.97056644883422982 0.67164160346324053 0.80546208782714934 0.41416757510886149 0.86754810273591176;-0.51487782707232721 0.73397354836927964 -0.35726566869154125 0.68723427983676322 0.14569713590061509 0.21627744842301777 0.91924180129860389 0.99924496362153947 0.85621975125036653 -0.99779547761223109;-0.17622677004717696 -0.7738562545094626 -0.42917523047749861 -0.85224210561556357 0.9888564101405688 -0.28062158991986103 0.66192064365525338 0.95249456243978725 -0.93291608350167365 -0.13805038138526121;0.53749550368351851 0.79091775045944779 -0.84357382451326923 -0.27290106744739973 -0.66316095405796294 0.9251804882427318 -0.19827731728943984 -0.047161763032333916 0.82743693113051597 0.21178229683373576;-0.9272744943064084 